digraph Tree {
node [shape=box] ;
0 [label="X[33] <= 0.007\ngini = 0.379\nsamples = 2163\nvalue = [1681, 145, 181, 156]"] ;
1 [label="X[3] <= 0.103\ngini = 0.269\nsamples = 824\nvalue = [701, 35, 40, 48]"] ;
0 -> 1 [labeldistance=2.5, labelangle=45, headlabel="True"] ;
2 [label="X[21] <= 0.001\ngini = 0.374\nsamples = 287\nvalue = [224, 18, 19, 26]"] ;
1 -> 2 ;
3 [label="X[34] <= 0.002\ngini = 0.34\nsamples = 260\nvalue = [209, 14, 13, 24]"] ;
2 -> 3 ;
4 [label="X[11] <= 0.929\ngini = 0.331\nsamples = 258\nvalue = [209, 14, 12, 23]"] ;
3 -> 4 ;
5 [label="X[19] <= 0.041\ngini = 0.326\nsamples = 257\nvalue = [209, 13, 12, 23]"] ;
4 -> 5 ;
6 [label="X[10] <= 0.761\ngini = 0.321\nsamples = 256\nvalue = [209, 12, 12, 23]"] ;
5 -> 6 ;
7 [label="X[20] <= 0.011\ngini = 0.316\nsamples = 255\nvalue = [209, 12, 12, 22]"] ;
6 -> 7 ;
8 [label="X[30] <= 0.0\ngini = 0.309\nsamples = 251\nvalue = [207, 12, 12, 20]"] ;
7 -> 8 ;
9 [label="X[23] <= 0.0\ngini = 0.304\nsamples = 250\nvalue = [207, 12, 11, 20]"] ;
8 -> 9 ;
10 [label="X[23] <= 0.0\ngini = 0.354\nsamples = 170\nvalue = [135, 8, 10, 17]"] ;
9 -> 10 ;
11 [label="X[29] <= 0.009\ngini = 0.323\nsamples = 162\nvalue = [132, 6, 9, 15]"] ;
10 -> 11 ;
12 [label="X[12] <= 0.7\ngini = 0.271\nsamples = 139\nvalue = [118, 5, 6, 10]"] ;
11 -> 12 ;
13 [label="X[4] <= 0.369\ngini = 0.261\nsamples = 138\nvalue = [118, 4, 6, 10]"] ;
12 -> 13 ;
14 [label="X[16] <= 0.004\ngini = 0.251\nsamples = 137\nvalue = [118, 4, 5, 10]"] ;
13 -> 14 ;
15 [label="X[9] <= 0.137\ngini = 0.241\nsamples = 136\nvalue = [118, 4, 5, 9]"] ;
14 -> 15 ;
16 [label="X[9] <= 0.115\ngini = 0.363\nsamples = 61\nvalue = [48, 3, 3, 7]"] ;
15 -> 16 ;
17 [label="X[14] <= 0.0\ngini = 0.233\nsamples = 47\nvalue = [41, 2, 1, 3]"] ;
16 -> 17 ;
18 [label="X[25] <= 0.004\ngini = 0.2\nsamples = 46\nvalue = [41, 1, 1, 3]"] ;
17 -> 18 ;
19 [label="X[24] <= 0.0\ngini = 0.167\nsamples = 45\nvalue = [41, 1, 1, 2]"] ;
18 -> 19 ;
20 [label="X[5] <= 0.051\ngini = 0.132\nsamples = 43\nvalue = [40, 1, 0, 2]"] ;
19 -> 20 ;
21 [label="X[1] <= 0.227\ngini = 0.059\nsamples = 33\nvalue = [32, 1, 0, 0]"] ;
20 -> 21 ;
22 [label="gini = 0.0\nsamples = 30\nvalue = [30, 0, 0, 0]"] ;
21 -> 22 ;
23 [label="X[1] <= 0.37\ngini = 0.444\nsamples = 3\nvalue = [2, 1, 0, 0]"] ;
21 -> 23 ;
24 [label="gini = 0.0\nsamples = 1\nvalue = [0, 1, 0, 0]"] ;
23 -> 24 ;
25 [label="gini = 0.0\nsamples = 2\nvalue = [2, 0, 0, 0]"] ;
23 -> 25 ;
26 [label="X[7] <= 0.004\ngini = 0.32\nsamples = 10\nvalue = [8, 0, 0, 2]"] ;
20 -> 26 ;
27 [label="gini = 0.0\nsamples = 5\nvalue = [5, 0, 0, 0]"] ;
26 -> 27 ;
28 [label="X[2] <= 0.333\ngini = 0.48\nsamples = 5\nvalue = [3, 0, 0, 2]"] ;
26 -> 28 ;
29 [label="gini = 0.0\nsamples = 3\nvalue = [3, 0, 0, 0]"] ;
28 -> 29 ;
30 [label="gini = 0.0\nsamples = 2\nvalue = [0, 0, 0, 2]"] ;
28 -> 30 ;
31 [label="X[36] <= 0.0\ngini = 0.5\nsamples = 2\nvalue = [1, 0, 1, 0]"] ;
19 -> 31 ;
32 [label="gini = 0.0\nsamples = 1\nvalue = [1, 0, 0, 0]"] ;
31 -> 32 ;
33 [label="gini = 0.0\nsamples = 1\nvalue = [0, 0, 1, 0]"] ;
31 -> 33 ;
34 [label="gini = 0.0\nsamples = 1\nvalue = [0, 0, 0, 1]"] ;
18 -> 34 ;
35 [label="gini = 0.0\nsamples = 1\nvalue = [0, 1, 0, 0]"] ;
17 -> 35 ;
36 [label="X[2] <= 0.208\ngini = 0.643\nsamples = 14\nvalue = [7, 1, 2, 4]"] ;
16 -> 36 ;
37 [label="X[36] <= 0.001\ngini = 0.5\nsamples = 4\nvalue = [0, 0, 2, 2]"] ;
36 -> 37 ;
38 [label="gini = 0.0\nsamples = 2\nvalue = [0, 0, 2, 0]"] ;
37 -> 38 ;
39 [label="gini = 0.0\nsamples = 2\nvalue = [0, 0, 0, 2]"] ;
37 -> 39 ;
40 [label="X[10] <= 0.522\ngini = 0.46\nsamples = 10\nvalue = [7, 1, 0, 2]"] ;
36 -> 40 ;
41 [label="gini = 0.0\nsamples = 7\nvalue = [7, 0, 0, 0]"] ;
40 -> 41 ;
42 [label="X[2] <= 0.5\ngini = 0.444\nsamples = 3\nvalue = [0, 1, 0, 2]"] ;
40 -> 42 ;
43 [label="gini = 0.0\nsamples = 1\nvalue = [0, 1, 0, 0]"] ;
42 -> 43 ;
44 [label="gini = 0.0\nsamples = 2\nvalue = [0, 0, 0, 2]"] ;
42 -> 44 ;
45 [label="X[3] <= 0.1\ngini = 0.127\nsamples = 75\nvalue = [70, 1, 2, 2]"] ;
15 -> 45 ;
46 [label="X[18] <= 0.004\ngini = 0.105\nsamples = 73\nvalue = [69, 0, 2, 2]"] ;
45 -> 46 ;
47 [label="X[5] <= 0.003\ngini = 0.082\nsamples = 71\nvalue = [68, 0, 1, 2]"] ;
46 -> 47 ;
48 [label="X[5] <= 0.003\ngini = 0.245\nsamples = 14\nvalue = [12, 0, 0, 2]"] ;
47 -> 48 ;
49 [label="X[3] <= 0.054\ngini = 0.142\nsamples = 13\nvalue = [12, 0, 0, 1]"] ;
48 -> 49 ;
50 [label="gini = 0.0\nsamples = 10\nvalue = [10, 0, 0, 0]"] ;
49 -> 50 ;
51 [label="X[5] <= 0.0\ngini = 0.444\nsamples = 3\nvalue = [2, 0, 0, 1]"] ;
49 -> 51 ;
52 [label="gini = 0.0\nsamples = 2\nvalue = [2, 0, 0, 0]"] ;
51 -> 52 ;
53 [label="gini = 0.0\nsamples = 1\nvalue = [0, 0, 0, 1]"] ;
51 -> 53 ;
54 [label="gini = 0.0\nsamples = 1\nvalue = [0, 0, 0, 1]"] ;
48 -> 54 ;
55 [label="X[3] <= 0.013\ngini = 0.034\nsamples = 57\nvalue = [56, 0, 1, 0]"] ;
47 -> 55 ;
56 [label="X[1] <= 0.285\ngini = 0.278\nsamples = 6\nvalue = [5, 0, 1, 0]"] ;
55 -> 56 ;
57 [label="gini = 0.0\nsamples = 5\nvalue = [5, 0, 0, 0]"] ;
56 -> 57 ;
58 [label="gini = 0.0\nsamples = 1\nvalue = [0, 0, 1, 0]"] ;
56 -> 58 ;
59 [label="gini = 0.0\nsamples = 51\nvalue = [51, 0, 0, 0]"] ;
55 -> 59 ;
60 [label="X[23] <= 0.0\ngini = 0.5\nsamples = 2\nvalue = [1, 0, 1, 0]"] ;
46 -> 60 ;
61 [label="gini = 0.0\nsamples = 1\nvalue = [0, 0, 1, 0]"] ;
60 -> 61 ;
62 [label="gini = 0.0\nsamples = 1\nvalue = [1, 0, 0, 0]"] ;
60 -> 62 ;
63 [label="X[24] <= 0.0\ngini = 0.5\nsamples = 2\nvalue = [1, 1, 0, 0]"] ;
45 -> 63 ;
64 [label="gini = 0.0\nsamples = 1\nvalue = [0, 1, 0, 0]"] ;
63 -> 64 ;
65 [label="gini = 0.0\nsamples = 1\nvalue = [1, 0, 0, 0]"] ;
63 -> 65 ;
66 [label="gini = 0.0\nsamples = 1\nvalue = [0, 0, 0, 1]"] ;
14 -> 66 ;
67 [label="gini = 0.0\nsamples = 1\nvalue = [0, 0, 1, 0]"] ;
13 -> 67 ;
68 [label="gini = 0.0\nsamples = 1\nvalue = [0, 1, 0, 0]"] ;
12 -> 68 ;
69 [label="X[29] <= 0.011\ngini = 0.563\nsamples = 23\nvalue = [14, 1, 3, 5]"] ;
11 -> 69 ;
70 [label="X[2] <= 0.208\ngini = 0.653\nsamples = 12\nvalue = [4, 0, 3, 5]"] ;
69 -> 70 ;
71 [label="gini = 0.0\nsamples = 3\nvalue = [0, 0, 3, 0]"] ;
70 -> 71 ;
72 [label="X[31] <= 0.001\ngini = 0.494\nsamples = 9\nvalue = [4, 0, 0, 5]"] ;
70 -> 72 ;
73 [label="gini = 0.0\nsamples = 3\nvalue = [3, 0, 0, 0]"] ;
72 -> 73 ;
74 [label="X[1] <= 0.434\ngini = 0.278\nsamples = 6\nvalue = [1, 0, 0, 5]"] ;
72 -> 74 ;
75 [label="gini = 0.0\nsamples = 5\nvalue = [0, 0, 0, 5]"] ;
74 -> 75 ;
76 [label="gini = 0.0\nsamples = 1\nvalue = [1, 0, 0, 0]"] ;
74 -> 76 ;
77 [label="X[3] <= 0.097\ngini = 0.165\nsamples = 11\nvalue = [10, 1, 0, 0]"] ;
69 -> 77 ;
78 [label="gini = 0.0\nsamples = 10\nvalue = [10, 0, 0, 0]"] ;
77 -> 78 ;
79 [label="gini = 0.0\nsamples = 1\nvalue = [0, 1, 0, 0]"] ;
77 -> 79 ;
80 [label="X[34] <= 0.0\ngini = 0.719\nsamples = 8\nvalue = [3, 2, 1, 2]"] ;
10 -> 80 ;
81 [label="X[17] <= 0.0\ngini = 0.5\nsamples = 4\nvalue = [0, 2, 0, 2]"] ;
80 -> 81 ;
82 [label="gini = 0.0\nsamples = 2\nvalue = [0, 0, 0, 2]"] ;
81 -> 82 ;
83 [label="gini = 0.0\nsamples = 2\nvalue = [0, 2, 0, 0]"] ;
81 -> 83 ;
84 [label="X[7] <= 0.045\ngini = 0.375\nsamples = 4\nvalue = [3, 0, 1, 0]"] ;
80 -> 84 ;
85 [label="gini = 0.0\nsamples = 3\nvalue = [3, 0, 0, 0]"] ;
84 -> 85 ;
86 [label="gini = 0.0\nsamples = 1\nvalue = [0, 0, 1, 0]"] ;
84 -> 86 ;
87 [label="X[21] <= 0.0\ngini = 0.186\nsamples = 80\nvalue = [72, 4, 1, 3]"] ;
9 -> 87 ;
88 [label="gini = 0.0\nsamples = 1\nvalue = [0, 0, 0, 1]"] ;
87 -> 88 ;
89 [label="X[9] <= 0.859\ngini = 0.166\nsamples = 79\nvalue = [72, 4, 1, 2]"] ;
87 -> 89 ;
90 [label="X[6] <= 0.321\ngini = 0.146\nsamples = 78\nvalue = [72, 3, 1, 2]"] ;
89 -> 90 ;
91 [label="X[20] <= 0.002\ngini = 0.086\nsamples = 68\nvalue = [65, 1, 1, 1]"] ;
90 -> 91 ;
92 [label="X[34] <= 0.0\ngini = 0.031\nsamples = 63\nvalue = [62, 0, 1, 0]"] ;
91 -> 92 ;
93 [label="X[23] <= 0.0\ngini = 0.278\nsamples = 6\nvalue = [5, 0, 1, 0]"] ;
92 -> 93 ;
94 [label="gini = 0.0\nsamples = 5\nvalue = [5, 0, 0, 0]"] ;
93 -> 94 ;
95 [label="gini = 0.0\nsamples = 1\nvalue = [0, 0, 1, 0]"] ;
93 -> 95 ;
96 [label="gini = 0.0\nsamples = 57\nvalue = [57, 0, 0, 0]"] ;
92 -> 96 ;
97 [label="X[34] <= 0.0\ngini = 0.56\nsamples = 5\nvalue = [3, 1, 0, 1]"] ;
91 -> 97 ;
98 [label="gini = 0.0\nsamples = 3\nvalue = [3, 0, 0, 0]"] ;
97 -> 98 ;
99 [label="X[1] <= 0.16\ngini = 0.5\nsamples = 2\nvalue = [0, 1, 0, 1]"] ;
97 -> 99 ;
100 [label="gini = 0.0\nsamples = 1\nvalue = [0, 0, 0, 1]"] ;
99 -> 100 ;
101 [label="gini = 0.0\nsamples = 1\nvalue = [0, 1, 0, 0]"] ;
99 -> 101 ;
102 [label="X[36] <= 0.001\ngini = 0.46\nsamples = 10\nvalue = [7, 2, 0, 1]"] ;
90 -> 102 ;
103 [label="X[21] <= 0.0\ngini = 0.444\nsamples = 3\nvalue = [0, 2, 0, 1]"] ;
102 -> 103 ;
104 [label="gini = 0.0\nsamples = 1\nvalue = [0, 0, 0, 1]"] ;
103 -> 104 ;
105 [label="gini = 0.0\nsamples = 2\nvalue = [0, 2, 0, 0]"] ;
103 -> 105 ;
106 [label="gini = 0.0\nsamples = 7\nvalue = [7, 0, 0, 0]"] ;
102 -> 106 ;
107 [label="gini = 0.0\nsamples = 1\nvalue = [0, 1, 0, 0]"] ;
89 -> 107 ;
108 [label="gini = 0.0\nsamples = 1\nvalue = [0, 0, 1, 0]"] ;
8 -> 108 ;
109 [label="X[3] <= 0.052\ngini = 0.5\nsamples = 4\nvalue = [2, 0, 0, 2]"] ;
7 -> 109 ;
110 [label="gini = 0.0\nsamples = 2\nvalue = [0, 0, 0, 2]"] ;
109 -> 110 ;
111 [label="gini = 0.0\nsamples = 2\nvalue = [2, 0, 0, 0]"] ;
109 -> 111 ;
112 [label="gini = 0.0\nsamples = 1\nvalue = [0, 0, 0, 1]"] ;
6 -> 112 ;
113 [label="gini = 0.0\nsamples = 1\nvalue = [0, 1, 0, 0]"] ;
5 -> 113 ;
114 [label="gini = 0.0\nsamples = 1\nvalue = [0, 1, 0, 0]"] ;
4 -> 114 ;
115 [label="X[34] <= 0.003\ngini = 0.5\nsamples = 2\nvalue = [0, 0, 1, 1]"] ;
3 -> 115 ;
116 [label="gini = 0.0\nsamples = 1\nvalue = [0, 0, 0, 1]"] ;
115 -> 116 ;
117 [label="gini = 0.0\nsamples = 1\nvalue = [0, 0, 1, 0]"] ;
115 -> 117 ;
118 [label="X[17] <= 0.002\ngini = 0.615\nsamples = 27\nvalue = [15, 4, 6, 2]"] ;
2 -> 118 ;
119 [label="X[13] <= 0.001\ngini = 0.582\nsamples = 25\nvalue = [15, 4, 4, 2]"] ;
118 -> 119 ;
120 [label="X[36] <= 0.003\ngini = 0.508\nsamples = 21\nvalue = [14, 4, 1, 2]"] ;
119 -> 120 ;
121 [label="X[36] <= 0.001\ngini = 0.681\nsamples = 12\nvalue = [5, 4, 1, 2]"] ;
120 -> 121 ;
122 [label="X[23] <= 0.001\ngini = 0.32\nsamples = 5\nvalue = [4, 0, 1, 0]"] ;
121 -> 122 ;
123 [label="gini = 0.0\nsamples = 4\nvalue = [4, 0, 0, 0]"] ;
122 -> 123 ;
124 [label="gini = 0.0\nsamples = 1\nvalue = [0, 0, 1, 0]"] ;
122 -> 124 ;
125 [label="X[14] <= 0.0\ngini = 0.571\nsamples = 7\nvalue = [1, 4, 0, 2]"] ;
121 -> 125 ;
126 [label="gini = 0.0\nsamples = 4\nvalue = [0, 4, 0, 0]"] ;
125 -> 126 ;
127 [label="X[7] <= 0.046\ngini = 0.444\nsamples = 3\nvalue = [1, 0, 0, 2]"] ;
125 -> 127 ;
128 [label="gini = 0.0\nsamples = 1\nvalue = [1, 0, 0, 0]"] ;
127 -> 128 ;
129 [label="gini = 0.0\nsamples = 2\nvalue = [0, 0, 0, 2]"] ;
127 -> 129 ;
130 [label="gini = 0.0\nsamples = 9\nvalue = [9, 0, 0, 0]"] ;
120 -> 130 ;
131 [label="X[23] <= 0.001\ngini = 0.375\nsamples = 4\nvalue = [1, 0, 3, 0]"] ;
119 -> 131 ;
132 [label="gini = 0.0\nsamples = 1\nvalue = [1, 0, 0, 0]"] ;
131 -> 132 ;
133 [label="gini = 0.0\nsamples = 3\nvalue = [0, 0, 3, 0]"] ;
131 -> 133 ;
134 [label="gini = 0.0\nsamples = 2\nvalue = [0, 0, 2, 0]"] ;
118 -> 134 ;
135 [label="X[24] <= 0.004\ngini = 0.207\nsamples = 537\nvalue = [477, 17, 21, 22]"] ;
1 -> 135 ;
136 [label="X[31] <= 0.0\ngini = 0.201\nsamples = 535\nvalue = [477, 16, 21, 21]"] ;
135 -> 136 ;
137 [label="X[29] <= 0.007\ngini = 0.5\nsamples = 2\nvalue = [0, 0, 1, 1]"] ;
136 -> 137 ;
138 [label="gini = 0.0\nsamples = 1\nvalue = [0, 0, 0, 1]"] ;
137 -> 138 ;
139 [label="gini = 0.0\nsamples = 1\nvalue = [0, 0, 1, 0]"] ;
137 -> 139 ;
140 [label="X[16] <= 0.037\ngini = 0.195\nsamples = 533\nvalue = [477, 16, 20, 20]"] ;
136 -> 140 ;
141 [label="X[35] <= 0.002\ngini = 0.192\nsamples = 532\nvalue = [477, 15, 20, 20]"] ;
140 -> 141 ;
142 [label="X[18] <= 0.031\ngini = 0.129\nsamples = 340\nvalue = [317, 3, 8, 12]"] ;
141 -> 142 ;
143 [label="X[28] <= 0.129\ngini = 0.124\nsamples = 339\nvalue = [317, 3, 8, 11]"] ;
142 -> 143 ;
144 [label="X[26] <= 0.03\ngini = 0.119\nsamples = 338\nvalue = [317, 3, 8, 10]"] ;
143 -> 144 ;
145 [label="X[1] <= 0.159\ngini = 0.11\nsamples = 332\nvalue = [313, 3, 6, 10]"] ;
144 -> 145 ;
146 [label="X[10] <= 0.109\ngini = 0.076\nsamples = 283\nvalue = [272, 2, 4, 5]"] ;
145 -> 146 ;
147 [label="X[10] <= 0.043\ngini = 0.5\nsamples = 2\nvalue = [1, 1, 0, 0]"] ;
146 -> 147 ;
148 [label="gini = 0.0\nsamples = 1\nvalue = [1, 0, 0, 0]"] ;
147 -> 148 ;
149 [label="gini = 0.0\nsamples = 1\nvalue = [0, 1, 0, 0]"] ;
147 -> 149 ;
150 [label="X[9] <= 0.731\ngini = 0.069\nsamples = 281\nvalue = [271, 1, 4, 5]"] ;
146 -> 150 ;
151 [label="X[3] <= 0.117\ngini = 0.063\nsamples = 279\nvalue = [270, 1, 3, 5]"] ;
150 -> 151 ;
152 [label="X[9] <= 0.097\ngini = 0.278\nsamples = 12\nvalue = [10, 0, 0, 2]"] ;
151 -> 152 ;
153 [label="gini = 0.0\nsamples = 1\nvalue = [0, 0, 0, 1]"] ;
152 -> 153 ;
154 [label="X[15] <= 0.001\ngini = 0.165\nsamples = 11\nvalue = [10, 0, 0, 1]"] ;
152 -> 154 ;
155 [label="gini = 0.0\nsamples = 10\nvalue = [10, 0, 0, 0]"] ;
154 -> 155 ;
156 [label="gini = 0.0\nsamples = 1\nvalue = [0, 0, 0, 1]"] ;
154 -> 156 ;
157 [label="X[12] <= 0.7\ngini = 0.051\nsamples = 267\nvalue = [260, 1, 3, 3]"] ;
151 -> 157 ;
158 [label="X[20] <= 0.004\ngini = 0.045\nsamples = 262\nvalue = [256, 1, 2, 3]"] ;
157 -> 158 ;
159 [label="X[27] <= 0.004\ngini = 0.032\nsamples = 247\nvalue = [243, 0, 2, 2]"] ;
158 -> 159 ;
160 [label="X[17] <= 0.001\ngini = 0.011\nsamples = 189\nvalue = [188, 0, 0, 1]"] ;
159 -> 160 ;
161 [label="gini = 0.0\nsamples = 174\nvalue = [174, 0, 0, 0]"] ;
160 -> 161 ;
162 [label="X[17] <= 0.001\ngini = 0.124\nsamples = 15\nvalue = [14, 0, 0, 1]"] ;
160 -> 162 ;
163 [label="gini = 0.0\nsamples = 1\nvalue = [0, 0, 0, 1]"] ;
162 -> 163 ;
164 [label="gini = 0.0\nsamples = 14\nvalue = [14, 0, 0, 0]"] ;
162 -> 164 ;
165 [label="X[10] <= 0.326\ngini = 0.099\nsamples = 58\nvalue = [55, 0, 2, 1]"] ;
159 -> 165 ;
166 [label="gini = 0.0\nsamples = 1\nvalue = [0, 0, 0, 1]"] ;
165 -> 166 ;
167 [label="X[27] <= 0.004\ngini = 0.068\nsamples = 57\nvalue = [55, 0, 2, 0]"] ;
165 -> 167 ;
168 [label="gini = 0.0\nsamples = 1\nvalue = [0, 0, 1, 0]"] ;
167 -> 168 ;
169 [label="X[9] <= 0.093\ngini = 0.035\nsamples = 56\nvalue = [55, 0, 1, 0]"] ;
167 -> 169 ;
170 [label="X[2] <= 0.167\ngini = 0.5\nsamples = 2\nvalue = [1, 0, 1, 0]"] ;
169 -> 170 ;
171 [label="gini = 0.0\nsamples = 1\nvalue = [1, 0, 0, 0]"] ;
170 -> 171 ;
172 [label="gini = 0.0\nsamples = 1\nvalue = [0, 0, 1, 0]"] ;
170 -> 172 ;
173 [label="gini = 0.0\nsamples = 54\nvalue = [54, 0, 0, 0]"] ;
169 -> 173 ;
174 [label="X[20] <= 0.005\ngini = 0.24\nsamples = 15\nvalue = [13, 1, 0, 1]"] ;
158 -> 174 ;
175 [label="gini = 0.0\nsamples = 1\nvalue = [0, 1, 0, 0]"] ;
174 -> 175 ;
176 [label="X[33] <= 0.006\ngini = 0.133\nsamples = 14\nvalue = [13, 0, 0, 1]"] ;
174 -> 176 ;
177 [label="gini = 0.0\nsamples = 13\nvalue = [13, 0, 0, 0]"] ;
176 -> 177 ;
178 [label="gini = 0.0\nsamples = 1\nvalue = [0, 0, 0, 1]"] ;
176 -> 178 ;
179 [label="X[13] <= 0.0\ngini = 0.32\nsamples = 5\nvalue = [4, 0, 1, 0]"] ;
157 -> 179 ;
180 [label="gini = 0.0\nsamples = 4\nvalue = [4, 0, 0, 0]"] ;
179 -> 180 ;
181 [label="gini = 0.0\nsamples = 1\nvalue = [0, 0, 1, 0]"] ;
179 -> 181 ;
182 [label="X[33] <= 0.002\ngini = 0.5\nsamples = 2\nvalue = [1, 0, 1, 0]"] ;
150 -> 182 ;
183 [label="gini = 0.0\nsamples = 1\nvalue = [1, 0, 0, 0]"] ;
182 -> 183 ;
184 [label="gini = 0.0\nsamples = 1\nvalue = [0, 0, 1, 0]"] ;
182 -> 184 ;
185 [label="X[5] <= 0.05\ngini = 0.287\nsamples = 49\nvalue = [41, 1, 2, 5]"] ;
145 -> 185 ;
186 [label="X[1] <= 0.173\ngini = 0.139\nsamples = 40\nvalue = [37, 0, 0, 3]"] ;
185 -> 186 ;
187 [label="gini = 0.0\nsamples = 1\nvalue = [0, 0, 0, 1]"] ;
186 -> 187 ;
188 [label="X[14] <= 0.0\ngini = 0.097\nsamples = 39\nvalue = [37, 0, 0, 2]"] ;
186 -> 188 ;
189 [label="gini = 0.0\nsamples = 31\nvalue = [31, 0, 0, 0]"] ;
188 -> 189 ;
190 [label="X[36] <= 0.001\ngini = 0.375\nsamples = 8\nvalue = [6, 0, 0, 2]"] ;
188 -> 190 ;
191 [label="gini = 0.0\nsamples = 2\nvalue = [0, 0, 0, 2]"] ;
190 -> 191 ;
192 [label="gini = 0.0\nsamples = 6\nvalue = [6, 0, 0, 0]"] ;
190 -> 192 ;
193 [label="X[2] <= 0.292\ngini = 0.691\nsamples = 9\nvalue = [4, 1, 2, 2]"] ;
185 -> 193 ;
194 [label="X[34] <= 0.0\ngini = 0.5\nsamples = 4\nvalue = [0, 0, 2, 2]"] ;
193 -> 194 ;
195 [label="gini = 0.0\nsamples = 2\nvalue = [0, 0, 2, 0]"] ;
194 -> 195 ;
196 [label="gini = 0.0\nsamples = 2\nvalue = [0, 0, 0, 2]"] ;
194 -> 196 ;
197 [label="X[33] <= 0.004\ngini = 0.32\nsamples = 5\nvalue = [4, 1, 0, 0]"] ;
193 -> 197 ;
198 [label="gini = 0.0\nsamples = 4\nvalue = [4, 0, 0, 0]"] ;
197 -> 198 ;
199 [label="gini = 0.0\nsamples = 1\nvalue = [0, 1, 0, 0]"] ;
197 -> 199 ;
200 [label="X[28] <= 0.048\ngini = 0.444\nsamples = 6\nvalue = [4, 0, 2, 0]"] ;
144 -> 200 ;
201 [label="gini = 0.0\nsamples = 2\nvalue = [0, 0, 2, 0]"] ;
200 -> 201 ;
202 [label="gini = 0.0\nsamples = 4\nvalue = [4, 0, 0, 0]"] ;
200 -> 202 ;
203 [label="gini = 0.0\nsamples = 1\nvalue = [0, 0, 0, 1]"] ;
143 -> 203 ;
204 [label="gini = 0.0\nsamples = 1\nvalue = [0, 0, 0, 1]"] ;
142 -> 204 ;
205 [label="X[2] <= 0.958\ngini = 0.296\nsamples = 192\nvalue = [160, 12, 12, 8]"] ;
141 -> 205 ;
206 [label="X[7] <= 0.619\ngini = 0.276\nsamples = 188\nvalue = [159, 10, 12, 7]"] ;
205 -> 206 ;
207 [label="X[15] <= 0.01\ngini = 0.269\nsamples = 187\nvalue = [159, 10, 12, 6]"] ;
206 -> 207 ;
208 [label="X[35] <= 0.002\ngini = 0.261\nsamples = 186\nvalue = [159, 10, 12, 5]"] ;
207 -> 208 ;
209 [label="X[24] <= 0.0\ngini = 0.49\nsamples = 7\nvalue = [4, 3, 0, 0]"] ;
208 -> 209 ;
210 [label="gini = 0.0\nsamples = 4\nvalue = [4, 0, 0, 0]"] ;
209 -> 210 ;
211 [label="gini = 0.0\nsamples = 3\nvalue = [0, 3, 0, 0]"] ;
209 -> 211 ;
212 [label="X[22] <= 0.0\ngini = 0.243\nsamples = 179\nvalue = [155, 7, 12, 5]"] ;
208 -> 212 ;
213 [label="X[1] <= 0.565\ngini = 0.169\nsamples = 133\nvalue = [121, 2, 7, 3]"] ;
212 -> 213 ;
214 [label="X[4] <= 0.036\ngini = 0.146\nsamples = 130\nvalue = [120, 2, 5, 3]"] ;
213 -> 214 ;
215 [label="X[5] <= 0.024\ngini = 0.625\nsamples = 4\nvalue = [2, 1, 0, 1]"] ;
214 -> 215 ;
216 [label="X[5] <= 0.011\ngini = 0.5\nsamples = 2\nvalue = [0, 1, 0, 1]"] ;
215 -> 216 ;
217 [label="gini = 0.0\nsamples = 1\nvalue = [0, 0, 0, 1]"] ;
216 -> 217 ;
218 [label="gini = 0.0\nsamples = 1\nvalue = [0, 1, 0, 0]"] ;
216 -> 218 ;
219 [label="gini = 0.0\nsamples = 2\nvalue = [2, 0, 0, 0]"] ;
215 -> 219 ;
220 [label="X[12] <= 0.1\ngini = 0.121\nsamples = 126\nvalue = [118, 1, 5, 2]"] ;
214 -> 220 ;
221 [label="X[5] <= 0.006\ngini = 0.043\nsamples = 92\nvalue = [90, 1, 0, 1]"] ;
220 -> 221 ;
222 [label="X[6] <= 0.169\ngini = 0.56\nsamples = 5\nvalue = [3, 1, 0, 1]"] ;
221 -> 222 ;
223 [label="X[16] <= 0.0\ngini = 0.5\nsamples = 2\nvalue = [0, 1, 0, 1]"] ;
222 -> 223 ;
224 [label="gini = 0.0\nsamples = 1\nvalue = [0, 0, 0, 1]"] ;
223 -> 224 ;
225 [label="gini = 0.0\nsamples = 1\nvalue = [0, 1, 0, 0]"] ;
223 -> 225 ;
226 [label="gini = 0.0\nsamples = 3\nvalue = [3, 0, 0, 0]"] ;
222 -> 226 ;
227 [label="gini = 0.0\nsamples = 87\nvalue = [87, 0, 0, 0]"] ;
221 -> 227 ;
228 [label="X[19] <= 0.005\ngini = 0.299\nsamples = 34\nvalue = [28, 0, 5, 1]"] ;
220 -> 228 ;
229 [label="X[41] <= 0.167\ngini = 0.175\nsamples = 31\nvalue = [28, 0, 3, 0]"] ;
228 -> 229 ;
230 [label="X[32] <= 0.005\ngini = 0.124\nsamples = 30\nvalue = [28, 0, 2, 0]"] ;
229 -> 230 ;
231 [label="X[2] <= 0.542\ngini = 0.067\nsamples = 29\nvalue = [28, 0, 1, 0]"] ;
230 -> 231 ;
232 [label="gini = 0.0\nsamples = 26\nvalue = [26, 0, 0, 0]"] ;
231 -> 232 ;
233 [label="X[23] <= 0.0\ngini = 0.444\nsamples = 3\nvalue = [2, 0, 1, 0]"] ;
231 -> 233 ;
234 [label="gini = 0.0\nsamples = 1\nvalue = [0, 0, 1, 0]"] ;
233 -> 234 ;
235 [label="gini = 0.0\nsamples = 2\nvalue = [2, 0, 0, 0]"] ;
233 -> 235 ;
236 [label="gini = 0.0\nsamples = 1\nvalue = [0, 0, 1, 0]"] ;
230 -> 236 ;
237 [label="gini = 0.0\nsamples = 1\nvalue = [0, 0, 1, 0]"] ;
229 -> 237 ;
238 [label="X[19] <= 0.01\ngini = 0.444\nsamples = 3\nvalue = [0, 0, 2, 1]"] ;
228 -> 238 ;
239 [label="gini = 0.0\nsamples = 2\nvalue = [0, 0, 2, 0]"] ;
238 -> 239 ;
240 [label="gini = 0.0\nsamples = 1\nvalue = [0, 0, 0, 1]"] ;
238 -> 240 ;
241 [label="X[1] <= 0.813\ngini = 0.444\nsamples = 3\nvalue = [1, 0, 2, 0]"] ;
213 -> 241 ;
242 [label="gini = 0.0\nsamples = 2\nvalue = [0, 0, 2, 0]"] ;
241 -> 242 ;
243 [label="gini = 0.0\nsamples = 1\nvalue = [1, 0, 0, 0]"] ;
241 -> 243 ;
244 [label="X[21] <= 0.0\ngini = 0.428\nsamples = 46\nvalue = [34, 5, 5, 2]"] ;
212 -> 244 ;
245 [label="gini = 0.0\nsamples = 3\nvalue = [0, 0, 3, 0]"] ;
244 -> 245 ;
246 [label="X[7] <= 0.005\ngini = 0.357\nsamples = 43\nvalue = [34, 5, 2, 2]"] ;
244 -> 246 ;
247 [label="X[35] <= 0.002\ngini = 0.524\nsamples = 15\nvalue = [9, 5, 0, 1]"] ;
246 -> 247 ;
248 [label="X[17] <= 0.001\ngini = 0.58\nsamples = 10\nvalue = [4, 5, 0, 1]"] ;
247 -> 248 ;
249 [label="X[3] <= 0.167\ngini = 0.571\nsamples = 7\nvalue = [4, 2, 0, 1]"] ;
248 -> 249 ;
250 [label="gini = 0.0\nsamples = 2\nvalue = [0, 2, 0, 0]"] ;
249 -> 250 ;
251 [label="X[35] <= 0.002\ngini = 0.32\nsamples = 5\nvalue = [4, 0, 0, 1]"] ;
249 -> 251 ;
252 [label="gini = 0.0\nsamples = 1\nvalue = [0, 0, 0, 1]"] ;
251 -> 252 ;
253 [label="gini = 0.0\nsamples = 4\nvalue = [4, 0, 0, 0]"] ;
251 -> 253 ;
254 [label="gini = 0.0\nsamples = 3\nvalue = [0, 3, 0, 0]"] ;
248 -> 254 ;
255 [label="gini = 0.0\nsamples = 5\nvalue = [5, 0, 0, 0]"] ;
247 -> 255 ;
256 [label="X[17] <= 0.002\ngini = 0.196\nsamples = 28\nvalue = [25, 0, 2, 1]"] ;
246 -> 256 ;
257 [label="X[9] <= 0.522\ngini = 0.142\nsamples = 26\nvalue = [24, 0, 2, 0]"] ;
256 -> 257 ;
258 [label="gini = 0.0\nsamples = 19\nvalue = [19, 0, 0, 0]"] ;
257 -> 258 ;
259 [label="X[9] <= 0.579\ngini = 0.408\nsamples = 7\nvalue = [5, 0, 2, 0]"] ;
257 -> 259 ;
260 [label="gini = 0.0\nsamples = 2\nvalue = [0, 0, 2, 0]"] ;
259 -> 260 ;
261 [label="gini = 0.0\nsamples = 5\nvalue = [5, 0, 0, 0]"] ;
259 -> 261 ;
262 [label="X[21] <= 0.003\ngini = 0.5\nsamples = 2\nvalue = [1, 0, 0, 1]"] ;
256 -> 262 ;
263 [label="gini = 0.0\nsamples = 1\nvalue = [1, 0, 0, 0]"] ;
262 -> 263 ;
264 [label="gini = 0.0\nsamples = 1\nvalue = [0, 0, 0, 1]"] ;
262 -> 264 ;
265 [label="gini = 0.0\nsamples = 1\nvalue = [0, 0, 0, 1]"] ;
207 -> 265 ;
266 [label="gini = 0.0\nsamples = 1\nvalue = [0, 0, 0, 1]"] ;
206 -> 266 ;
267 [label="X[5] <= 0.045\ngini = 0.625\nsamples = 4\nvalue = [1, 2, 0, 1]"] ;
205 -> 267 ;
268 [label="gini = 0.0\nsamples = 2\nvalue = [0, 2, 0, 0]"] ;
267 -> 268 ;
269 [label="X[27] <= 0.008\ngini = 0.5\nsamples = 2\nvalue = [1, 0, 0, 1]"] ;
267 -> 269 ;
270 [label="gini = 0.0\nsamples = 1\nvalue = [1, 0, 0, 0]"] ;
269 -> 270 ;
271 [label="gini = 0.0\nsamples = 1\nvalue = [0, 0, 0, 1]"] ;
269 -> 271 ;
272 [label="gini = 0.0\nsamples = 1\nvalue = [0, 1, 0, 0]"] ;
140 -> 272 ;
273 [label="X[24] <= 0.004\ngini = 0.5\nsamples = 2\nvalue = [0, 1, 0, 1]"] ;
135 -> 273 ;
274 [label="gini = 0.0\nsamples = 1\nvalue = [0, 0, 0, 1]"] ;
273 -> 274 ;
275 [label="gini = 0.0\nsamples = 1\nvalue = [0, 1, 0, 0]"] ;
273 -> 275 ;
276 [label="X[8] <= 0.5\ngini = 0.44\nsamples = 1339\nvalue = [980, 110, 141, 108]"] ;
0 -> 276 [labeldistance=2.5, labelangle=-45, headlabel="False"] ;
277 [label="X[34] <= 0.009\ngini = 0.476\nsamples = 697\nvalue = [487, 110, 61, 39]"] ;
276 -> 277 ;
278 [label="X[3] <= 0.27\ngini = 0.464\nsamples = 681\nvalue = [482, 110, 51, 38]"] ;
277 -> 278 ;
279 [label="X[15] <= 0.015\ngini = 0.52\nsamples = 446\nvalue = [292, 90, 33, 31]"] ;
278 -> 279 ;
280 [label="X[30] <= 0.0\ngini = 0.508\nsamples = 431\nvalue = [288, 81, 31, 31]"] ;
279 -> 280 ;
281 [label="X[19] <= 0.003\ngini = 0.546\nsamples = 348\nvalue = [218, 78, 25, 27]"] ;
280 -> 281 ;
282 [label="X[33] <= 0.007\ngini = 0.535\nsamples = 242\nvalue = [157, 39, 22, 24]"] ;
281 -> 282 ;
283 [label="gini = 0.0\nsamples = 2\nvalue = [0, 0, 2, 0]"] ;
282 -> 283 ;
284 [label="X[23] <= 0.001\ngini = 0.529\nsamples = 240\nvalue = [157, 39, 20, 24]"] ;
282 -> 284 ;
285 [label="X[16] <= 0.0\ngini = 0.484\nsamples = 192\nvalue = [133, 30, 14, 15]"] ;
284 -> 285 ;
286 [label="X[17] <= 0.001\ngini = 0.562\nsamples = 116\nvalue = [72, 21, 11, 12]"] ;
285 -> 286 ;
287 [label="X[33] <= 0.008\ngini = 0.623\nsamples = 91\nvalue = [50, 20, 10, 11]"] ;
286 -> 287 ;
288 [label="X[36] <= 0.003\ngini = 0.663\nsamples = 13\nvalue = [2, 4, 1, 6]"] ;
287 -> 288 ;
289 [label="X[1] <= 0.372\ngini = 0.278\nsamples = 6\nvalue = [1, 0, 0, 5]"] ;
288 -> 289 ;
290 [label="gini = 0.0\nsamples = 5\nvalue = [0, 0, 0, 5]"] ;
289 -> 290 ;
291 [label="gini = 0.0\nsamples = 1\nvalue = [1, 0, 0, 0]"] ;
289 -> 291 ;
292 [label="X[4] <= 0.079\ngini = 0.612\nsamples = 7\nvalue = [1, 4, 1, 1]"] ;
288 -> 292 ;
293 [label="X[3] <= 0.112\ngini = 0.5\nsamples = 2\nvalue = [0, 0, 1, 1]"] ;
292 -> 293 ;
294 [label="gini = 0.0\nsamples = 1\nvalue = [0, 0, 0, 1]"] ;
293 -> 294 ;
295 [label="gini = 0.0\nsamples = 1\nvalue = [0, 0, 1, 0]"] ;
293 -> 295 ;
296 [label="X[34] <= 0.0\ngini = 0.32\nsamples = 5\nvalue = [1, 4, 0, 0]"] ;
292 -> 296 ;
297 [label="gini = 0.0\nsamples = 1\nvalue = [1, 0, 0, 0]"] ;
296 -> 297 ;
298 [label="gini = 0.0\nsamples = 4\nvalue = [0, 4, 0, 0]"] ;
296 -> 298 ;
299 [label="X[4] <= 0.301\ngini = 0.562\nsamples = 78\nvalue = [48, 16, 9, 5]"] ;
287 -> 299 ;
300 [label="X[36] <= 0.015\ngini = 0.534\nsamples = 74\nvalue = [48, 12, 9, 5]"] ;
299 -> 300 ;
301 [label="X[34] <= 0.001\ngini = 0.504\nsamples = 71\nvalue = [48, 10, 9, 4]"] ;
300 -> 301 ;
302 [label="X[14] <= 0.0\ngini = 0.571\nsamples = 59\nvalue = [36, 10, 9, 4]"] ;
301 -> 302 ;
303 [label="X[23] <= 0.0\ngini = 0.538\nsamples = 56\nvalue = [36, 8, 9, 3]"] ;
302 -> 303 ;
304 [label="X[30] <= 0.0\ngini = 0.613\nsamples = 43\nvalue = [24, 7, 9, 3]"] ;
303 -> 304 ;
305 [label="X[16] <= 0.0\ngini = 0.545\nsamples = 36\nvalue = [23, 6, 4, 3]"] ;
304 -> 305 ;
306 [label="X[23] <= 0.0\ngini = 0.422\nsamples = 27\nvalue = [20, 2, 4, 1]"] ;
305 -> 306 ;
307 [label="X[17] <= 0.0\ngini = 0.333\nsamples = 25\nvalue = [20, 1, 4, 0]"] ;
306 -> 307 ;
308 [label="X[5] <= 0.065\ngini = 0.244\nsamples = 22\nvalue = [19, 1, 2, 0]"] ;
307 -> 308 ;
309 [label="X[33] <= 0.018\ngini = 0.095\nsamples = 20\nvalue = [19, 1, 0, 0]"] ;
308 -> 309 ;
310 [label="gini = 0.0\nsamples = 18\nvalue = [18, 0, 0, 0]"] ;
309 -> 310 ;
311 [label="X[16] <= 0.0\ngini = 0.5\nsamples = 2\nvalue = [1, 1, 0, 0]"] ;
309 -> 311 ;
312 [label="gini = 0.0\nsamples = 1\nvalue = [0, 1, 0, 0]"] ;
311 -> 312 ;
313 [label="gini = 0.0\nsamples = 1\nvalue = [1, 0, 0, 0]"] ;
311 -> 313 ;
314 [label="gini = 0.0\nsamples = 2\nvalue = [0, 0, 2, 0]"] ;
308 -> 314 ;
315 [label="X[17] <= 0.001\ngini = 0.444\nsamples = 3\nvalue = [1, 0, 2, 0]"] ;
307 -> 315 ;
316 [label="gini = 0.0\nsamples = 2\nvalue = [0, 0, 2, 0]"] ;
315 -> 316 ;
317 [label="gini = 0.0\nsamples = 1\nvalue = [1, 0, 0, 0]"] ;
315 -> 317 ;
318 [label="X[6] <= 0.065\ngini = 0.5\nsamples = 2\nvalue = [0, 1, 0, 1]"] ;
306 -> 318 ;
319 [label="gini = 0.0\nsamples = 1\nvalue = [0, 0, 0, 1]"] ;
318 -> 319 ;
320 [label="gini = 0.0\nsamples = 1\nvalue = [0, 1, 0, 0]"] ;
318 -> 320 ;
321 [label="X[21] <= 0.0\ngini = 0.642\nsamples = 9\nvalue = [3, 4, 0, 2]"] ;
305 -> 321 ;
322 [label="X[10] <= 0.413\ngini = 0.444\nsamples = 6\nvalue = [0, 4, 0, 2]"] ;
321 -> 322 ;
323 [label="gini = 0.0\nsamples = 2\nvalue = [0, 0, 0, 2]"] ;
322 -> 323 ;
324 [label="gini = 0.0\nsamples = 4\nvalue = [0, 4, 0, 0]"] ;
322 -> 324 ;
325 [label="gini = 0.0\nsamples = 3\nvalue = [3, 0, 0, 0]"] ;
321 -> 325 ;
326 [label="X[26] <= 0.016\ngini = 0.449\nsamples = 7\nvalue = [1, 1, 5, 0]"] ;
304 -> 326 ;
327 [label="gini = 0.0\nsamples = 5\nvalue = [0, 0, 5, 0]"] ;
326 -> 327 ;
328 [label="X[7] <= 0.044\ngini = 0.5\nsamples = 2\nvalue = [1, 1, 0, 0]"] ;
326 -> 328 ;
329 [label="gini = 0.0\nsamples = 1\nvalue = [1, 0, 0, 0]"] ;
328 -> 329 ;
330 [label="gini = 0.0\nsamples = 1\nvalue = [0, 1, 0, 0]"] ;
328 -> 330 ;
331 [label="X[24] <= 0.003\ngini = 0.142\nsamples = 13\nvalue = [12, 1, 0, 0]"] ;
303 -> 331 ;
332 [label="gini = 0.0\nsamples = 12\nvalue = [12, 0, 0, 0]"] ;
331 -> 332 ;
333 [label="gini = 0.0\nsamples = 1\nvalue = [0, 1, 0, 0]"] ;
331 -> 333 ;
334 [label="X[22] <= 0.0\ngini = 0.444\nsamples = 3\nvalue = [0, 2, 0, 1]"] ;
302 -> 334 ;
335 [label="gini = 0.0\nsamples = 1\nvalue = [0, 0, 0, 1]"] ;
334 -> 335 ;
336 [label="gini = 0.0\nsamples = 2\nvalue = [0, 2, 0, 0]"] ;
334 -> 336 ;
337 [label="gini = 0.0\nsamples = 12\nvalue = [12, 0, 0, 0]"] ;
301 -> 337 ;
338 [label="X[4] <= 0.059\ngini = 0.444\nsamples = 3\nvalue = [0, 2, 0, 1]"] ;
300 -> 338 ;
339 [label="gini = 0.0\nsamples = 1\nvalue = [0, 0, 0, 1]"] ;
338 -> 339 ;
340 [label="gini = 0.0\nsamples = 2\nvalue = [0, 2, 0, 0]"] ;
338 -> 340 ;
341 [label="gini = 0.0\nsamples = 4\nvalue = [0, 4, 0, 0]"] ;
299 -> 341 ;
342 [label="X[13] <= 0.007\ngini = 0.221\nsamples = 25\nvalue = [22, 1, 1, 1]"] ;
286 -> 342 ;
343 [label="X[4] <= 0.428\ngini = 0.156\nsamples = 24\nvalue = [22, 0, 1, 1]"] ;
342 -> 343 ;
344 [label="X[13] <= 0.001\ngini = 0.083\nsamples = 23\nvalue = [22, 0, 0, 1]"] ;
343 -> 344 ;
345 [label="gini = 0.0\nsamples = 20\nvalue = [20, 0, 0, 0]"] ;
344 -> 345 ;
346 [label="X[12] <= 0.1\ngini = 0.444\nsamples = 3\nvalue = [2, 0, 0, 1]"] ;
344 -> 346 ;
347 [label="gini = 0.0\nsamples = 2\nvalue = [2, 0, 0, 0]"] ;
346 -> 347 ;
348 [label="gini = 0.0\nsamples = 1\nvalue = [0, 0, 0, 1]"] ;
346 -> 348 ;
349 [label="gini = 0.0\nsamples = 1\nvalue = [0, 0, 1, 0]"] ;
343 -> 349 ;
350 [label="gini = 0.0\nsamples = 1\nvalue = [0, 1, 0, 0]"] ;
342 -> 350 ;
351 [label="X[25] <= 0.06\ngini = 0.339\nsamples = 76\nvalue = [61, 9, 3, 3]"] ;
285 -> 351 ;
352 [label="X[34] <= 0.0\ngini = 0.322\nsamples = 75\nvalue = [61, 9, 3, 2]"] ;
351 -> 352 ;
353 [label="gini = 0.0\nsamples = 1\nvalue = [0, 0, 0, 1]"] ;
352 -> 353 ;
354 [label="X[33] <= 0.15\ngini = 0.304\nsamples = 74\nvalue = [61, 9, 3, 1]"] ;
352 -> 354 ;
355 [label="X[36] <= 0.001\ngini = 0.286\nsamples = 73\nvalue = [61, 9, 2, 1]"] ;
354 -> 355 ;
356 [label="gini = 0.0\nsamples = 1\nvalue = [0, 1, 0, 0]"] ;
355 -> 356 ;
357 [label="X[40] <= 0.167\ngini = 0.269\nsamples = 72\nvalue = [61, 8, 2, 1]"] ;
355 -> 357 ;
358 [label="X[17] <= 0.0\ngini = 0.251\nsamples = 71\nvalue = [61, 7, 2, 1]"] ;
357 -> 358 ;
359 [label="gini = 0.0\nsamples = 33\nvalue = [33, 0, 0, 0]"] ;
358 -> 359 ;
360 [label="X[16] <= 0.001\ngini = 0.42\nsamples = 38\nvalue = [28, 7, 2, 1]"] ;
358 -> 360 ;
361 [label="X[20] <= 0.011\ngini = 0.261\nsamples = 27\nvalue = [23, 3, 0, 1]"] ;
360 -> 361 ;
362 [label="X[36] <= 0.003\ngini = 0.15\nsamples = 25\nvalue = [23, 1, 0, 1]"] ;
361 -> 362 ;
363 [label="gini = 0.0\nsamples = 1\nvalue = [0, 1, 0, 0]"] ;
362 -> 363 ;
364 [label="X[9] <= 0.039\ngini = 0.08\nsamples = 24\nvalue = [23, 0, 0, 1]"] ;
362 -> 364 ;
365 [label="X[14] <= 0.0\ngini = 0.5\nsamples = 2\nvalue = [1, 0, 0, 1]"] ;
364 -> 365 ;
366 [label="gini = 0.0\nsamples = 1\nvalue = [1, 0, 0, 0]"] ;
365 -> 366 ;
367 [label="gini = 0.0\nsamples = 1\nvalue = [0, 0, 0, 1]"] ;
365 -> 367 ;
368 [label="gini = 0.0\nsamples = 22\nvalue = [22, 0, 0, 0]"] ;
364 -> 368 ;
369 [label="gini = 0.0\nsamples = 2\nvalue = [0, 2, 0, 0]"] ;
361 -> 369 ;
370 [label="X[3] <= 0.089\ngini = 0.628\nsamples = 11\nvalue = [5, 4, 2, 0]"] ;
360 -> 370 ;
371 [label="gini = 0.0\nsamples = 4\nvalue = [4, 0, 0, 0]"] ;
370 -> 371 ;
372 [label="X[2] <= 0.292\ngini = 0.571\nsamples = 7\nvalue = [1, 4, 2, 0]"] ;
370 -> 372 ;
373 [label="gini = 0.0\nsamples = 4\nvalue = [0, 4, 0, 0]"] ;
372 -> 373 ;
374 [label="X[35] <= 0.005\ngini = 0.444\nsamples = 3\nvalue = [1, 0, 2, 0]"] ;
372 -> 374 ;
375 [label="gini = 0.0\nsamples = 1\nvalue = [1, 0, 0, 0]"] ;
374 -> 375 ;
376 [label="gini = 0.0\nsamples = 2\nvalue = [0, 0, 2, 0]"] ;
374 -> 376 ;
377 [label="gini = 0.0\nsamples = 1\nvalue = [0, 1, 0, 0]"] ;
357 -> 377 ;
378 [label="gini = 0.0\nsamples = 1\nvalue = [0, 0, 1, 0]"] ;
354 -> 378 ;
379 [label="gini = 0.0\nsamples = 1\nvalue = [0, 0, 0, 1]"] ;
351 -> 379 ;
380 [label="X[17] <= 0.004\ngini = 0.664\nsamples = 48\nvalue = [24, 9, 6, 9]"] ;
284 -> 380 ;
381 [label="X[20] <= 0.0\ngini = 0.629\nsamples = 44\nvalue = [24, 9, 5, 6]"] ;
380 -> 381 ;
382 [label="X[27] <= 0.005\ngini = 0.497\nsamples = 28\nvalue = [19, 2, 2, 5]"] ;
381 -> 382 ;
383 [label="X[21] <= 0.001\ngini = 0.426\nsamples = 26\nvalue = [19, 1, 1, 5]"] ;
382 -> 383 ;
384 [label="X[17] <= 0.0\ngini = 0.5\nsamples = 2\nvalue = [0, 1, 1, 0]"] ;
383 -> 384 ;
385 [label="gini = 0.0\nsamples = 1\nvalue = [0, 0, 1, 0]"] ;
384 -> 385 ;
386 [label="gini = 0.0\nsamples = 1\nvalue = [0, 1, 0, 0]"] ;
384 -> 386 ;
387 [label="X[16] <= 0.0\ngini = 0.33\nsamples = 24\nvalue = [19, 0, 0, 5]"] ;
383 -> 387 ;
388 [label="X[6] <= 0.065\ngini = 0.494\nsamples = 9\nvalue = [5, 0, 0, 4]"] ;
387 -> 388 ;
389 [label="gini = 0.0\nsamples = 4\nvalue = [4, 0, 0, 0]"] ;
388 -> 389 ;
390 [label="X[21] <= 0.048\ngini = 0.32\nsamples = 5\nvalue = [1, 0, 0, 4]"] ;
388 -> 390 ;
391 [label="gini = 0.0\nsamples = 4\nvalue = [0, 0, 0, 4]"] ;
390 -> 391 ;
392 [label="gini = 0.0\nsamples = 1\nvalue = [1, 0, 0, 0]"] ;
390 -> 392 ;
393 [label="X[24] <= 0.017\ngini = 0.124\nsamples = 15\nvalue = [14, 0, 0, 1]"] ;
387 -> 393 ;
394 [label="gini = 0.0\nsamples = 14\nvalue = [14, 0, 0, 0]"] ;
393 -> 394 ;
395 [label="gini = 0.0\nsamples = 1\nvalue = [0, 0, 0, 1]"] ;
393 -> 395 ;
396 [label="X[0] <= 0.227\ngini = 0.5\nsamples = 2\nvalue = [0, 1, 1, 0]"] ;
382 -> 396 ;
397 [label="gini = 0.0\nsamples = 1\nvalue = [0, 0, 1, 0]"] ;
396 -> 397 ;
398 [label="gini = 0.0\nsamples = 1\nvalue = [0, 1, 0, 0]"] ;
396 -> 398 ;
399 [label="X[22] <= 0.003\ngini = 0.672\nsamples = 16\nvalue = [5, 7, 3, 1]"] ;
381 -> 399 ;
400 [label="X[6] <= 0.065\ngini = 0.569\nsamples = 12\nvalue = [2, 7, 3, 0]"] ;
399 -> 400 ;
401 [label="gini = 0.0\nsamples = 5\nvalue = [0, 5, 0, 0]"] ;
400 -> 401 ;
402 [label="X[24] <= 0.002\ngini = 0.653\nsamples = 7\nvalue = [2, 2, 3, 0]"] ;
400 -> 402 ;
403 [label="X[9] <= 0.39\ngini = 0.5\nsamples = 4\nvalue = [2, 2, 0, 0]"] ;
402 -> 403 ;
404 [label="gini = 0.0\nsamples = 2\nvalue = [0, 2, 0, 0]"] ;
403 -> 404 ;
405 [label="gini = 0.0\nsamples = 2\nvalue = [2, 0, 0, 0]"] ;
403 -> 405 ;
406 [label="gini = 0.0\nsamples = 3\nvalue = [0, 0, 3, 0]"] ;
402 -> 406 ;
407 [label="X[0] <= 0.136\ngini = 0.375\nsamples = 4\nvalue = [3, 0, 0, 1]"] ;
399 -> 407 ;
408 [label="gini = 0.0\nsamples = 1\nvalue = [0, 0, 0, 1]"] ;
407 -> 408 ;
409 [label="gini = 0.0\nsamples = 3\nvalue = [3, 0, 0, 0]"] ;
407 -> 409 ;
410 [label="X[9] <= 0.682\ngini = 0.375\nsamples = 4\nvalue = [0, 0, 1, 3]"] ;
380 -> 410 ;
411 [label="gini = 0.0\nsamples = 3\nvalue = [0, 0, 0, 3]"] ;
410 -> 411 ;
412 [label="gini = 0.0\nsamples = 1\nvalue = [0, 0, 1, 0]"] ;
410 -> 412 ;
413 [label="X[3] <= 0.073\ngini = 0.532\nsamples = 106\nvalue = [61, 39, 3, 3]"] ;
281 -> 413 ;
414 [label="X[17] <= 0.017\ngini = 0.516\nsamples = 31\nvalue = [10, 19, 2, 0]"] ;
413 -> 414 ;
415 [label="X[10] <= 0.326\ngini = 0.472\nsamples = 28\nvalue = [7, 19, 2, 0]"] ;
414 -> 415 ;
416 [label="X[16] <= 0.001\ngini = 0.444\nsamples = 3\nvalue = [2, 0, 1, 0]"] ;
415 -> 416 ;
417 [label="gini = 0.0\nsamples = 2\nvalue = [2, 0, 0, 0]"] ;
416 -> 417 ;
418 [label="gini = 0.0\nsamples = 1\nvalue = [0, 0, 1, 0]"] ;
416 -> 418 ;
419 [label="X[7] <= 0.033\ngini = 0.381\nsamples = 25\nvalue = [5, 19, 1, 0]"] ;
415 -> 419 ;
420 [label="X[20] <= 0.002\ngini = 0.579\nsamples = 11\nvalue = [5, 5, 1, 0]"] ;
419 -> 420 ;
421 [label="gini = 0.0\nsamples = 5\nvalue = [5, 0, 0, 0]"] ;
420 -> 421 ;
422 [label="X[33] <= 0.011\ngini = 0.278\nsamples = 6\nvalue = [0, 5, 1, 0]"] ;
420 -> 422 ;
423 [label="gini = 0.0\nsamples = 1\nvalue = [0, 0, 1, 0]"] ;
422 -> 423 ;
424 [label="gini = 0.0\nsamples = 5\nvalue = [0, 5, 0, 0]"] ;
422 -> 424 ;
425 [label="gini = 0.0\nsamples = 14\nvalue = [0, 14, 0, 0]"] ;
419 -> 425 ;
426 [label="gini = 0.0\nsamples = 3\nvalue = [3, 0, 0, 0]"] ;
414 -> 426 ;
427 [label="X[7] <= 0.009\ngini = 0.465\nsamples = 75\nvalue = [51, 20, 1, 3]"] ;
413 -> 427 ;
428 [label="X[4] <= 0.376\ngini = 0.596\nsamples = 35\nvalue = [17, 14, 1, 3]"] ;
427 -> 428 ;
429 [label="X[9] <= 0.602\ngini = 0.586\nsamples = 25\nvalue = [9, 13, 0, 3]"] ;
428 -> 429 ;
430 [label="X[15] <= 0.003\ngini = 0.551\nsamples = 15\nvalue = [9, 4, 0, 2]"] ;
429 -> 430 ;
431 [label="X[19] <= 0.006\ngini = 0.426\nsamples = 13\nvalue = [9, 4, 0, 0]"] ;
430 -> 431 ;
432 [label="X[18] <= 0.002\ngini = 0.444\nsamples = 6\nvalue = [2, 4, 0, 0]"] ;
431 -> 432 ;
433 [label="gini = 0.0\nsamples = 2\nvalue = [2, 0, 0, 0]"] ;
432 -> 433 ;
434 [label="gini = 0.0\nsamples = 4\nvalue = [0, 4, 0, 0]"] ;
432 -> 434 ;
435 [label="gini = 0.0\nsamples = 7\nvalue = [7, 0, 0, 0]"] ;
431 -> 435 ;
436 [label="gini = 0.0\nsamples = 2\nvalue = [0, 0, 0, 2]"] ;
430 -> 436 ;
437 [label="X[16] <= 0.005\ngini = 0.18\nsamples = 10\nvalue = [0, 9, 0, 1]"] ;
429 -> 437 ;
438 [label="gini = 0.0\nsamples = 9\nvalue = [0, 9, 0, 0]"] ;
437 -> 438 ;
439 [label="gini = 0.0\nsamples = 1\nvalue = [0, 0, 0, 1]"] ;
437 -> 439 ;
440 [label="X[21] <= 0.0\ngini = 0.34\nsamples = 10\nvalue = [8, 1, 1, 0]"] ;
428 -> 440 ;
441 [label="X[20] <= 0.004\ngini = 0.5\nsamples = 2\nvalue = [0, 1, 1, 0]"] ;
440 -> 441 ;
442 [label="gini = 0.0\nsamples = 1\nvalue = [0, 1, 0, 0]"] ;
441 -> 442 ;
443 [label="gini = 0.0\nsamples = 1\nvalue = [0, 0, 1, 0]"] ;
441 -> 443 ;
444 [label="gini = 0.0\nsamples = 8\nvalue = [8, 0, 0, 0]"] ;
440 -> 444 ;
445 [label="X[24] <= 0.0\ngini = 0.255\nsamples = 40\nvalue = [34, 6, 0, 0]"] ;
427 -> 445 ;
446 [label="gini = 0.0\nsamples = 2\nvalue = [0, 2, 0, 0]"] ;
445 -> 446 ;
447 [label="X[33] <= 0.107\ngini = 0.188\nsamples = 38\nvalue = [34, 4, 0, 0]"] ;
445 -> 447 ;
448 [label="X[10] <= 0.304\ngini = 0.149\nsamples = 37\nvalue = [34, 3, 0, 0]"] ;
447 -> 448 ;
449 [label="gini = 0.0\nsamples = 1\nvalue = [0, 1, 0, 0]"] ;
448 -> 449 ;
450 [label="X[17] <= 0.0\ngini = 0.105\nsamples = 36\nvalue = [34, 2, 0, 0]"] ;
448 -> 450 ;
451 [label="X[17] <= 0.0\ngini = 0.298\nsamples = 11\nvalue = [9, 2, 0, 0]"] ;
450 -> 451 ;
452 [label="gini = 0.0\nsamples = 9\nvalue = [9, 0, 0, 0]"] ;
451 -> 452 ;
453 [label="gini = 0.0\nsamples = 2\nvalue = [0, 2, 0, 0]"] ;
451 -> 453 ;
454 [label="gini = 0.0\nsamples = 25\nvalue = [25, 0, 0, 0]"] ;
450 -> 454 ;
455 [label="gini = 0.0\nsamples = 1\nvalue = [0, 1, 0, 0]"] ;
447 -> 455 ;
456 [label="X[18] <= 0.022\ngini = 0.28\nsamples = 83\nvalue = [70, 3, 6, 4]"] ;
280 -> 456 ;
457 [label="X[14] <= 0.0\ngini = 0.22\nsamples = 75\nvalue = [66, 2, 3, 4]"] ;
456 -> 457 ;
458 [label="X[35] <= 0.001\ngini = 0.2\nsamples = 74\nvalue = [66, 2, 2, 4]"] ;
457 -> 458 ;
459 [label="gini = 0.0\nsamples = 1\nvalue = [0, 0, 0, 1]"] ;
458 -> 459 ;
460 [label="X[22] <= 0.005\ngini = 0.179\nsamples = 73\nvalue = [66, 2, 2, 3]"] ;
458 -> 460 ;
461 [label="X[12] <= 0.1\ngini = 0.142\nsamples = 67\nvalue = [62, 2, 2, 1]"] ;
460 -> 461 ;
462 [label="X[21] <= 0.0\ngini = 0.07\nsamples = 56\nvalue = [54, 0, 1, 1]"] ;
461 -> 462 ;
463 [label="gini = 0.0\nsamples = 1\nvalue = [0, 0, 0, 1]"] ;
462 -> 463 ;
464 [label="X[31] <= 0.216\ngini = 0.036\nsamples = 55\nvalue = [54, 0, 1, 0]"] ;
462 -> 464 ;
465 [label="gini = 0.0\nsamples = 54\nvalue = [54, 0, 0, 0]"] ;
464 -> 465 ;
466 [label="gini = 0.0\nsamples = 1\nvalue = [0, 0, 1, 0]"] ;
464 -> 466 ;
467 [label="X[39] <= 0.25\ngini = 0.43\nsamples = 11\nvalue = [8, 2, 1, 0]"] ;
461 -> 467 ;
468 [label="X[16] <= 0.006\ngini = 0.198\nsamples = 9\nvalue = [8, 0, 1, 0]"] ;
467 -> 468 ;
469 [label="gini = 0.0\nsamples = 8\nvalue = [8, 0, 0, 0]"] ;
468 -> 469 ;
470 [label="gini = 0.0\nsamples = 1\nvalue = [0, 0, 1, 0]"] ;
468 -> 470 ;
471 [label="gini = 0.0\nsamples = 2\nvalue = [0, 2, 0, 0]"] ;
467 -> 471 ;
472 [label="X[32] <= 0.009\ngini = 0.444\nsamples = 6\nvalue = [4, 0, 0, 2]"] ;
460 -> 472 ;
473 [label="gini = 0.0\nsamples = 2\nvalue = [0, 0, 0, 2]"] ;
472 -> 473 ;
474 [label="gini = 0.0\nsamples = 4\nvalue = [4, 0, 0, 0]"] ;
472 -> 474 ;
475 [label="gini = 0.0\nsamples = 1\nvalue = [0, 0, 1, 0]"] ;
457 -> 475 ;
476 [label="X[18] <= 0.038\ngini = 0.594\nsamples = 8\nvalue = [4, 1, 3, 0]"] ;
456 -> 476 ;
477 [label="X[26] <= 0.01\ngini = 0.375\nsamples = 4\nvalue = [0, 1, 3, 0]"] ;
476 -> 477 ;
478 [label="gini = 0.0\nsamples = 1\nvalue = [0, 1, 0, 0]"] ;
477 -> 478 ;
479 [label="gini = 0.0\nsamples = 3\nvalue = [0, 0, 3, 0]"] ;
477 -> 479 ;
480 [label="gini = 0.0\nsamples = 4\nvalue = [4, 0, 0, 0]"] ;
476 -> 480 ;
481 [label="X[14] <= 0.001\ngini = 0.551\nsamples = 15\nvalue = [4, 9, 2, 0]"] ;
279 -> 481 ;
482 [label="X[5] <= 0.172\ngini = 0.403\nsamples = 12\nvalue = [1, 9, 2, 0]"] ;
481 -> 482 ;
483 [label="X[2] <= 0.542\ngini = 0.18\nsamples = 10\nvalue = [1, 9, 0, 0]"] ;
482 -> 483 ;
484 [label="gini = 0.0\nsamples = 9\nvalue = [0, 9, 0, 0]"] ;
483 -> 484 ;
485 [label="gini = 0.0\nsamples = 1\nvalue = [1, 0, 0, 0]"] ;
483 -> 485 ;
486 [label="gini = 0.0\nsamples = 2\nvalue = [0, 0, 2, 0]"] ;
482 -> 486 ;
487 [label="gini = 0.0\nsamples = 3\nvalue = [3, 0, 0, 0]"] ;
481 -> 487 ;
488 [label="X[5] <= 0.303\ngini = 0.332\nsamples = 235\nvalue = [190, 20, 18, 7]"] ;
278 -> 488 ;
489 [label="X[18] <= 0.059\ngini = 0.313\nsamples = 230\nvalue = [189, 18, 16, 7]"] ;
488 -> 489 ;
490 [label="X[34] <= 0.0\ngini = 0.303\nsamples = 227\nvalue = [188, 18, 14, 7]"] ;
489 -> 490 ;
491 [label="gini = 0.0\nsamples = 1\nvalue = [0, 0, 0, 1]"] ;
490 -> 491 ;
492 [label="X[16] <= 0.035\ngini = 0.297\nsamples = 226\nvalue = [188, 18, 14, 6]"] ;
490 -> 492 ;
493 [label="X[5] <= 0.053\ngini = 0.292\nsamples = 225\nvalue = [188, 17, 14, 6]"] ;
492 -> 493 ;
494 [label="X[19] <= 0.072\ngini = 0.215\nsamples = 120\nvalue = [106, 4, 6, 4]"] ;
493 -> 494 ;
495 [label="X[36] <= 0.018\ngini = 0.203\nsamples = 119\nvalue = [106, 4, 5, 4]"] ;
494 -> 495 ;
496 [label="X[17] <= 0.004\ngini = 0.19\nsamples = 118\nvalue = [106, 4, 4, 4]"] ;
495 -> 496 ;
497 [label="X[0] <= 0.318\ngini = 0.152\nsamples = 112\nvalue = [103, 2, 4, 3]"] ;
496 -> 497 ;
498 [label="X[33] <= 0.017\ngini = 0.111\nsamples = 104\nvalue = [98, 2, 1, 3]"] ;
497 -> 498 ;
499 [label="X[31] <= 0.011\ngini = 0.043\nsamples = 91\nvalue = [89, 1, 1, 0]"] ;
498 -> 499 ;
500 [label="X[4] <= 0.355\ngini = 0.022\nsamples = 90\nvalue = [89, 0, 1, 0]"] ;
499 -> 500 ;
501 [label="gini = 0.0\nsamples = 87\nvalue = [87, 0, 0, 0]"] ;
500 -> 501 ;
502 [label="X[9] <= 0.497\ngini = 0.444\nsamples = 3\nvalue = [2, 0, 1, 0]"] ;
500 -> 502 ;
503 [label="gini = 0.0\nsamples = 1\nvalue = [0, 0, 1, 0]"] ;
502 -> 503 ;
504 [label="gini = 0.0\nsamples = 2\nvalue = [2, 0, 0, 0]"] ;
502 -> 504 ;
505 [label="gini = 0.0\nsamples = 1\nvalue = [0, 1, 0, 0]"] ;
499 -> 505 ;
506 [label="X[13] <= 0.002\ngini = 0.462\nsamples = 13\nvalue = [9, 1, 0, 3]"] ;
498 -> 506 ;
507 [label="X[4] <= 0.071\ngini = 0.198\nsamples = 9\nvalue = [8, 1, 0, 0]"] ;
506 -> 507 ;
508 [label="gini = 0.0\nsamples = 1\nvalue = [0, 1, 0, 0]"] ;
507 -> 508 ;
509 [label="gini = 0.0\nsamples = 8\nvalue = [8, 0, 0, 0]"] ;
507 -> 509 ;
510 [label="X[3] <= 0.4\ngini = 0.375\nsamples = 4\nvalue = [1, 0, 0, 3]"] ;
506 -> 510 ;
511 [label="gini = 0.0\nsamples = 1\nvalue = [1, 0, 0, 0]"] ;
510 -> 511 ;
512 [label="gini = 0.0\nsamples = 3\nvalue = [0, 0, 0, 3]"] ;
510 -> 512 ;
513 [label="X[19] <= 0.004\ngini = 0.469\nsamples = 8\nvalue = [5, 0, 3, 0]"] ;
497 -> 513 ;
514 [label="gini = 0.0\nsamples = 4\nvalue = [4, 0, 0, 0]"] ;
513 -> 514 ;
515 [label="X[4] <= 0.289\ngini = 0.375\nsamples = 4\nvalue = [1, 0, 3, 0]"] ;
513 -> 515 ;
516 [label="gini = 0.0\nsamples = 3\nvalue = [0, 0, 3, 0]"] ;
515 -> 516 ;
517 [label="gini = 0.0\nsamples = 1\nvalue = [1, 0, 0, 0]"] ;
515 -> 517 ;
518 [label="X[1] <= 0.113\ngini = 0.611\nsamples = 6\nvalue = [3, 2, 0, 1]"] ;
496 -> 518 ;
519 [label="gini = 0.0\nsamples = 3\nvalue = [3, 0, 0, 0]"] ;
518 -> 519 ;
520 [label="X[15] <= 0.001\ngini = 0.444\nsamples = 3\nvalue = [0, 2, 0, 1]"] ;
518 -> 520 ;
521 [label="gini = 0.0\nsamples = 2\nvalue = [0, 2, 0, 0]"] ;
520 -> 521 ;
522 [label="gini = 0.0\nsamples = 1\nvalue = [0, 0, 0, 1]"] ;
520 -> 522 ;
523 [label="gini = 0.0\nsamples = 1\nvalue = [0, 0, 1, 0]"] ;
495 -> 523 ;
524 [label="gini = 0.0\nsamples = 1\nvalue = [0, 0, 1, 0]"] ;
494 -> 524 ;
525 [label="X[33] <= 0.019\ngini = 0.369\nsamples = 105\nvalue = [82, 13, 8, 2]"] ;
493 -> 525 ;
526 [label="X[20] <= 0.008\ngini = 0.588\nsamples = 32\nvalue = [18, 9, 4, 1]"] ;
525 -> 526 ;
527 [label="X[15] <= 0.0\ngini = 0.518\nsamples = 28\nvalue = [18, 7, 2, 1]"] ;
526 -> 527 ;
528 [label="X[13] <= 0.0\ngini = 0.658\nsamples = 15\nvalue = [6, 6, 2, 1]"] ;
527 -> 528 ;
529 [label="X[36] <= 0.001\ngini = 0.278\nsamples = 6\nvalue = [5, 0, 0, 1]"] ;
528 -> 529 ;
530 [label="gini = 0.0\nsamples = 1\nvalue = [0, 0, 0, 1]"] ;
529 -> 530 ;
531 [label="gini = 0.0\nsamples = 5\nvalue = [5, 0, 0, 0]"] ;
529 -> 531 ;
532 [label="X[6] <= 0.618\ngini = 0.494\nsamples = 9\nvalue = [1, 6, 2, 0]"] ;
528 -> 532 ;
533 [label="X[18] <= 0.011\ngini = 0.245\nsamples = 7\nvalue = [1, 6, 0, 0]"] ;
532 -> 533 ;
534 [label="gini = 0.0\nsamples = 6\nvalue = [0, 6, 0, 0]"] ;
533 -> 534 ;
535 [label="gini = 0.0\nsamples = 1\nvalue = [1, 0, 0, 0]"] ;
533 -> 535 ;
536 [label="gini = 0.0\nsamples = 2\nvalue = [0, 0, 2, 0]"] ;
532 -> 536 ;
537 [label="X[20] <= 0.005\ngini = 0.142\nsamples = 13\nvalue = [12, 1, 0, 0]"] ;
527 -> 537 ;
538 [label="gini = 0.0\nsamples = 12\nvalue = [12, 0, 0, 0]"] ;
537 -> 538 ;
539 [label="gini = 0.0\nsamples = 1\nvalue = [0, 1, 0, 0]"] ;
537 -> 539 ;
540 [label="X[29] <= 0.009\ngini = 0.5\nsamples = 4\nvalue = [0, 2, 2, 0]"] ;
526 -> 540 ;
541 [label="gini = 0.0\nsamples = 2\nvalue = [0, 2, 0, 0]"] ;
540 -> 541 ;
542 [label="gini = 0.0\nsamples = 2\nvalue = [0, 0, 2, 0]"] ;
540 -> 542 ;
543 [label="X[5] <= 0.059\ngini = 0.225\nsamples = 73\nvalue = [64, 4, 4, 1]"] ;
525 -> 543 ;
544 [label="X[36] <= 0.007\ngini = 0.5\nsamples = 2\nvalue = [0, 1, 1, 0]"] ;
543 -> 544 ;
545 [label="gini = 0.0\nsamples = 1\nvalue = [0, 0, 1, 0]"] ;
544 -> 545 ;
546 [label="gini = 0.0\nsamples = 1\nvalue = [0, 1, 0, 0]"] ;
544 -> 546 ;
547 [label="X[4] <= 0.045\ngini = 0.184\nsamples = 71\nvalue = [64, 3, 3, 1]"] ;
543 -> 547 ;
548 [label="gini = 0.0\nsamples = 1\nvalue = [0, 0, 1, 0]"] ;
547 -> 548 ;
549 [label="X[21] <= 0.0\ngini = 0.161\nsamples = 70\nvalue = [64, 3, 2, 1]"] ;
547 -> 549 ;
550 [label="X[24] <= 0.0\ngini = 0.494\nsamples = 9\nvalue = [6, 2, 1, 0]"] ;
549 -> 550 ;
551 [label="gini = 0.0\nsamples = 5\nvalue = [5, 0, 0, 0]"] ;
550 -> 551 ;
552 [label="X[32] <= 0.003\ngini = 0.625\nsamples = 4\nvalue = [1, 2, 1, 0]"] ;
550 -> 552 ;
553 [label="X[23] <= 0.0\ngini = 0.5\nsamples = 2\nvalue = [1, 0, 1, 0]"] ;
552 -> 553 ;
554 [label="gini = 0.0\nsamples = 1\nvalue = [1, 0, 0, 0]"] ;
553 -> 554 ;
555 [label="gini = 0.0\nsamples = 1\nvalue = [0, 0, 1, 0]"] ;
553 -> 555 ;
556 [label="gini = 0.0\nsamples = 2\nvalue = [0, 2, 0, 0]"] ;
552 -> 556 ;
557 [label="X[13] <= 0.02\ngini = 0.095\nsamples = 61\nvalue = [58, 1, 1, 1]"] ;
549 -> 557 ;
558 [label="X[29] <= 0.105\ngini = 0.066\nsamples = 59\nvalue = [57, 0, 1, 1]"] ;
557 -> 558 ;
559 [label="X[23] <= 0.0\ngini = 0.034\nsamples = 57\nvalue = [56, 0, 0, 1]"] ;
558 -> 559 ;
560 [label="X[16] <= 0.001\ngini = 0.375\nsamples = 4\nvalue = [3, 0, 0, 1]"] ;
559 -> 560 ;
561 [label="gini = 0.0\nsamples = 3\nvalue = [3, 0, 0, 0]"] ;
560 -> 561 ;
562 [label="gini = 0.0\nsamples = 1\nvalue = [0, 0, 0, 1]"] ;
560 -> 562 ;
563 [label="gini = 0.0\nsamples = 53\nvalue = [53, 0, 0, 0]"] ;
559 -> 563 ;
564 [label="X[25] <= 0.018\ngini = 0.5\nsamples = 2\nvalue = [1, 0, 1, 0]"] ;
558 -> 564 ;
565 [label="gini = 0.0\nsamples = 1\nvalue = [0, 0, 1, 0]"] ;
564 -> 565 ;
566 [label="gini = 0.0\nsamples = 1\nvalue = [1, 0, 0, 0]"] ;
564 -> 566 ;
567 [label="X[30] <= 0.001\ngini = 0.5\nsamples = 2\nvalue = [1, 1, 0, 0]"] ;
557 -> 567 ;
568 [label="gini = 0.0\nsamples = 1\nvalue = [0, 1, 0, 0]"] ;
567 -> 568 ;
569 [label="gini = 0.0\nsamples = 1\nvalue = [1, 0, 0, 0]"] ;
567 -> 569 ;
570 [label="gini = 0.0\nsamples = 1\nvalue = [0, 1, 0, 0]"] ;
492 -> 570 ;
571 [label="X[18] <= 0.092\ngini = 0.444\nsamples = 3\nvalue = [1, 0, 2, 0]"] ;
489 -> 571 ;
572 [label="gini = 0.0\nsamples = 2\nvalue = [0, 0, 2, 0]"] ;
571 -> 572 ;
573 [label="gini = 0.0\nsamples = 1\nvalue = [1, 0, 0, 0]"] ;
571 -> 573 ;
574 [label="X[20] <= 0.007\ngini = 0.64\nsamples = 5\nvalue = [1, 2, 2, 0]"] ;
488 -> 574 ;
575 [label="gini = 0.0\nsamples = 2\nvalue = [0, 0, 2, 0]"] ;
574 -> 575 ;
576 [label="X[4] <= 0.448\ngini = 0.444\nsamples = 3\nvalue = [1, 2, 0, 0]"] ;
574 -> 576 ;
577 [label="gini = 0.0\nsamples = 2\nvalue = [0, 2, 0, 0]"] ;
576 -> 577 ;
578 [label="gini = 0.0\nsamples = 1\nvalue = [1, 0, 0, 0]"] ;
576 -> 578 ;
579 [label="X[9] <= 0.906\ngini = 0.508\nsamples = 16\nvalue = [5, 0, 10, 1]"] ;
277 -> 579 ;
580 [label="X[23] <= 0.019\ngini = 0.18\nsamples = 10\nvalue = [1, 0, 9, 0]"] ;
579 -> 580 ;
581 [label="gini = 0.0\nsamples = 9\nvalue = [0, 0, 9, 0]"] ;
580 -> 581 ;
582 [label="gini = 0.0\nsamples = 1\nvalue = [1, 0, 0, 0]"] ;
580 -> 582 ;
583 [label="X[17] <= 0.0\ngini = 0.5\nsamples = 6\nvalue = [4, 0, 1, 1]"] ;
579 -> 583 ;
584 [label="X[9] <= 0.949\ngini = 0.5\nsamples = 2\nvalue = [0, 0, 1, 1]"] ;
583 -> 584 ;
585 [label="gini = 0.0\nsamples = 1\nvalue = [0, 0, 0, 1]"] ;
584 -> 585 ;
586 [label="gini = 0.0\nsamples = 1\nvalue = [0, 0, 1, 0]"] ;
584 -> 586 ;
587 [label="gini = 0.0\nsamples = 4\nvalue = [4, 0, 0, 0]"] ;
583 -> 587 ;
588 [label="X[40] <= 0.167\ngini = 0.383\nsamples = 642\nvalue = [493, 0, 80, 69]"] ;
276 -> 588 ;
589 [label="X[25] <= 0.007\ngini = 0.35\nsamples = 564\nvalue = [447, 0, 54, 63]"] ;
588 -> 589 ;
590 [label="X[21] <= 0.036\ngini = 0.404\nsamples = 402\nvalue = [302, 0, 43, 57]"] ;
589 -> 590 ;
591 [label="X[9] <= 0.321\ngini = 0.383\nsamples = 387\nvalue = [297, 0, 38, 52]"] ;
590 -> 591 ;
592 [label="X[0] <= 0.227\ngini = 0.569\nsamples = 65\nvalue = [38, 0, 11, 16]"] ;
591 -> 592 ;
593 [label="X[2] <= 0.542\ngini = 0.54\nsamples = 59\nvalue = [36, 0, 7, 16]"] ;
592 -> 593 ;
594 [label="X[22] <= 0.001\ngini = 0.479\nsamples = 52\nvalue = [35, 0, 4, 13]"] ;
593 -> 594 ;
595 [label="X[25] <= 0.002\ngini = 0.411\nsamples = 46\nvalue = [34, 0, 3, 9]"] ;
594 -> 595 ;
596 [label="X[5] <= 0.015\ngini = 0.29\nsamples = 36\nvalue = [30, 0, 2, 4]"] ;
595 -> 596 ;
597 [label="gini = 0.0\nsamples = 1\nvalue = [0, 0, 0, 1]"] ;
596 -> 597 ;
598 [label="X[35] <= 0.014\ngini = 0.255\nsamples = 35\nvalue = [30, 0, 2, 3]"] ;
596 -> 598 ;
599 [label="X[17] <= 0.0\ngini = 0.215\nsamples = 34\nvalue = [30, 0, 2, 2]"] ;
598 -> 599 ;
600 [label="X[16] <= 0.0\ngini = 0.494\nsamples = 9\nvalue = [6, 0, 1, 2]"] ;
599 -> 600 ;
601 [label="X[15] <= 0.001\ngini = 0.245\nsamples = 7\nvalue = [6, 0, 1, 0]"] ;
600 -> 601 ;
602 [label="gini = 0.0\nsamples = 6\nvalue = [6, 0, 0, 0]"] ;
601 -> 602 ;
603 [label="gini = 0.0\nsamples = 1\nvalue = [0, 0, 1, 0]"] ;
601 -> 603 ;
604 [label="gini = 0.0\nsamples = 2\nvalue = [0, 0, 0, 2]"] ;
600 -> 604 ;
605 [label="X[4] <= 0.452\ngini = 0.077\nsamples = 25\nvalue = [24, 0, 1, 0]"] ;
599 -> 605 ;
606 [label="gini = 0.0\nsamples = 23\nvalue = [23, 0, 0, 0]"] ;
605 -> 606 ;
607 [label="X[0] <= 0.091\ngini = 0.5\nsamples = 2\nvalue = [1, 0, 1, 0]"] ;
605 -> 607 ;
608 [label="gini = 0.0\nsamples = 1\nvalue = [1, 0, 0, 0]"] ;
607 -> 608 ;
609 [label="gini = 0.0\nsamples = 1\nvalue = [0, 0, 1, 0]"] ;
607 -> 609 ;
610 [label="gini = 0.0\nsamples = 1\nvalue = [0, 0, 0, 1]"] ;
598 -> 610 ;
611 [label="X[33] <= 0.011\ngini = 0.58\nsamples = 10\nvalue = [4, 0, 1, 5]"] ;
595 -> 611 ;
612 [label="gini = 0.0\nsamples = 3\nvalue = [3, 0, 0, 0]"] ;
611 -> 612 ;
613 [label="X[31] <= 0.006\ngini = 0.449\nsamples = 7\nvalue = [1, 0, 1, 5]"] ;
611 -> 613 ;
614 [label="gini = 0.0\nsamples = 5\nvalue = [0, 0, 0, 5]"] ;
613 -> 614 ;
615 [label="X[24] <= 0.002\ngini = 0.5\nsamples = 2\nvalue = [1, 0, 1, 0]"] ;
613 -> 615 ;
616 [label="gini = 0.0\nsamples = 1\nvalue = [0, 0, 1, 0]"] ;
615 -> 616 ;
617 [label="gini = 0.0\nsamples = 1\nvalue = [1, 0, 0, 0]"] ;
615 -> 617 ;
618 [label="X[18] <= 0.002\ngini = 0.5\nsamples = 6\nvalue = [1, 0, 1, 4]"] ;
594 -> 618 ;
619 [label="gini = 0.0\nsamples = 4\nvalue = [0, 0, 0, 4]"] ;
618 -> 619 ;
620 [label="X[35] <= 0.006\ngini = 0.5\nsamples = 2\nvalue = [1, 0, 1, 0]"] ;
618 -> 620 ;
621 [label="gini = 0.0\nsamples = 1\nvalue = [1, 0, 0, 0]"] ;
620 -> 621 ;
622 [label="gini = 0.0\nsamples = 1\nvalue = [0, 0, 1, 0]"] ;
620 -> 622 ;
623 [label="X[33] <= 0.013\ngini = 0.612\nsamples = 7\nvalue = [1, 0, 3, 3]"] ;
593 -> 623 ;
624 [label="gini = 0.0\nsamples = 3\nvalue = [0, 0, 3, 0]"] ;
623 -> 624 ;
625 [label="X[30] <= 0.0\ngini = 0.375\nsamples = 4\nvalue = [1, 0, 0, 3]"] ;
623 -> 625 ;
626 [label="gini = 0.0\nsamples = 3\nvalue = [0, 0, 0, 3]"] ;
625 -> 626 ;
627 [label="gini = 0.0\nsamples = 1\nvalue = [1, 0, 0, 0]"] ;
625 -> 627 ;
628 [label="X[5] <= 0.105\ngini = 0.444\nsamples = 6\nvalue = [2, 0, 4, 0]"] ;
592 -> 628 ;
629 [label="gini = 0.0\nsamples = 4\nvalue = [0, 0, 4, 0]"] ;
628 -> 629 ;
630 [label="gini = 0.0\nsamples = 2\nvalue = [2, 0, 0, 0]"] ;
628 -> 630 ;
631 [label="X[33] <= 0.06\ngini = 0.333\nsamples = 322\nvalue = [259, 0, 27, 36]"] ;
591 -> 631 ;
632 [label="X[28] <= 0.019\ngini = 0.279\nsamples = 253\nvalue = [213, 0, 18, 22]"] ;
631 -> 632 ;
633 [label="X[22] <= 0.001\ngini = 0.265\nsamples = 248\nvalue = [211, 0, 18, 19]"] ;
632 -> 633 ;
634 [label="X[19] <= 0.327\ngini = 0.167\nsamples = 156\nvalue = [142, 0, 8, 6]"] ;
633 -> 634 ;
635 [label="X[33] <= 0.007\ngini = 0.157\nsamples = 155\nvalue = [142, 0, 7, 6]"] ;
634 -> 635 ;
636 [label="gini = 0.0\nsamples = 1\nvalue = [0, 0, 1, 0]"] ;
635 -> 636 ;
637 [label="X[23] <= 0.006\ngini = 0.147\nsamples = 154\nvalue = [142, 0, 6, 6]"] ;
635 -> 637 ;
638 [label="X[16] <= 0.007\ngini = 0.136\nsamples = 153\nvalue = [142, 0, 5, 6]"] ;
637 -> 638 ;
639 [label="X[17] <= 0.01\ngini = 0.116\nsamples = 148\nvalue = [139, 0, 3, 6]"] ;
638 -> 639 ;
640 [label="X[42] <= 0.5\ngini = 0.084\nsamples = 137\nvalue = [131, 0, 1, 5]"] ;
639 -> 640 ;
641 [label="X[22] <= 0.0\ngini = 0.072\nsamples = 135\nvalue = [130, 0, 1, 4]"] ;
640 -> 641 ;
642 [label="X[22] <= 0.0\ngini = 0.165\nsamples = 56\nvalue = [51, 0, 1, 4]"] ;
641 -> 642 ;
643 [label="X[36] <= 0.002\ngini = 0.043\nsamples = 46\nvalue = [45, 0, 0, 1]"] ;
642 -> 643 ;
644 [label="X[13] <= 0.001\ngini = 0.245\nsamples = 7\nvalue = [6, 0, 0, 1]"] ;
643 -> 644 ;
645 [label="gini = 0.0\nsamples = 6\nvalue = [6, 0, 0, 0]"] ;
644 -> 645 ;
646 [label="gini = 0.0\nsamples = 1\nvalue = [0, 0, 0, 1]"] ;
644 -> 646 ;
647 [label="gini = 0.0\nsamples = 39\nvalue = [39, 0, 0, 0]"] ;
643 -> 647 ;
648 [label="X[34] <= 0.001\ngini = 0.54\nsamples = 10\nvalue = [6, 0, 1, 3]"] ;
642 -> 648 ;
649 [label="X[25] <= 0.001\ngini = 0.278\nsamples = 6\nvalue = [5, 0, 1, 0]"] ;
648 -> 649 ;
650 [label="gini = 0.0\nsamples = 5\nvalue = [5, 0, 0, 0]"] ;
649 -> 650 ;
651 [label="gini = 0.0\nsamples = 1\nvalue = [0, 0, 1, 0]"] ;
649 -> 651 ;
652 [label="X[23] <= 0.0\ngini = 0.375\nsamples = 4\nvalue = [1, 0, 0, 3]"] ;
648 -> 652 ;
653 [label="gini = 0.0\nsamples = 1\nvalue = [1, 0, 0, 0]"] ;
652 -> 653 ;
654 [label="gini = 0.0\nsamples = 3\nvalue = [0, 0, 0, 3]"] ;
652 -> 654 ;
655 [label="gini = 0.0\nsamples = 79\nvalue = [79, 0, 0, 0]"] ;
641 -> 655 ;
656 [label="X[15] <= 0.001\ngini = 0.5\nsamples = 2\nvalue = [1, 0, 0, 1]"] ;
640 -> 656 ;
657 [label="gini = 0.0\nsamples = 1\nvalue = [1, 0, 0, 0]"] ;
656 -> 657 ;
658 [label="gini = 0.0\nsamples = 1\nvalue = [0, 0, 0, 1]"] ;
656 -> 658 ;
659 [label="X[7] <= 0.002\ngini = 0.43\nsamples = 11\nvalue = [8, 0, 2, 1]"] ;
639 -> 659 ;
660 [label="X[24] <= 0.002\ngini = 0.5\nsamples = 2\nvalue = [0, 0, 1, 1]"] ;
659 -> 660 ;
661 [label="gini = 0.0\nsamples = 1\nvalue = [0, 0, 0, 1]"] ;
660 -> 661 ;
662 [label="gini = 0.0\nsamples = 1\nvalue = [0, 0, 1, 0]"] ;
660 -> 662 ;
663 [label="X[34] <= 0.003\ngini = 0.198\nsamples = 9\nvalue = [8, 0, 1, 0]"] ;
659 -> 663 ;
664 [label="gini = 0.0\nsamples = 8\nvalue = [8, 0, 0, 0]"] ;
663 -> 664 ;
665 [label="gini = 0.0\nsamples = 1\nvalue = [0, 0, 1, 0]"] ;
663 -> 665 ;
666 [label="X[14] <= 0.0\ngini = 0.48\nsamples = 5\nvalue = [3, 0, 2, 0]"] ;
638 -> 666 ;
667 [label="gini = 0.0\nsamples = 2\nvalue = [0, 0, 2, 0]"] ;
666 -> 667 ;
668 [label="gini = 0.0\nsamples = 3\nvalue = [3, 0, 0, 0]"] ;
666 -> 668 ;
669 [label="gini = 0.0\nsamples = 1\nvalue = [0, 0, 1, 0]"] ;
637 -> 669 ;
670 [label="gini = 0.0\nsamples = 1\nvalue = [0, 0, 1, 0]"] ;
634 -> 670 ;
671 [label="X[35] <= 0.004\ngini = 0.406\nsamples = 92\nvalue = [69, 0, 10, 13]"] ;
633 -> 671 ;
672 [label="X[9] <= 0.48\ngini = 0.651\nsamples = 17\nvalue = [7, 0, 4, 6]"] ;
671 -> 672 ;
673 [label="X[26] <= 0.001\ngini = 0.346\nsamples = 9\nvalue = [7, 0, 0, 2]"] ;
672 -> 673 ;
674 [label="X[5] <= 0.098\ngini = 0.219\nsamples = 8\nvalue = [7, 0, 0, 1]"] ;
673 -> 674 ;
675 [label="gini = 0.0\nsamples = 7\nvalue = [7, 0, 0, 0]"] ;
674 -> 675 ;
676 [label="gini = 0.0\nsamples = 1\nvalue = [0, 0, 0, 1]"] ;
674 -> 676 ;
677 [label="gini = 0.0\nsamples = 1\nvalue = [0, 0, 0, 1]"] ;
673 -> 677 ;
678 [label="X[14] <= 0.0\ngini = 0.5\nsamples = 8\nvalue = [0, 0, 4, 4]"] ;
672 -> 678 ;
679 [label="X[5] <= 0.041\ngini = 0.32\nsamples = 5\nvalue = [0, 0, 4, 1]"] ;
678 -> 679 ;
680 [label="gini = 0.0\nsamples = 1\nvalue = [0, 0, 0, 1]"] ;
679 -> 680 ;
681 [label="gini = 0.0\nsamples = 4\nvalue = [0, 0, 4, 0]"] ;
679 -> 681 ;
682 [label="gini = 0.0\nsamples = 3\nvalue = [0, 0, 0, 3]"] ;
678 -> 682 ;
683 [label="X[23] <= 0.017\ngini = 0.302\nsamples = 75\nvalue = [62, 0, 6, 7]"] ;
671 -> 683 ;
684 [label="X[25] <= 0.003\ngini = 0.267\nsamples = 73\nvalue = [62, 0, 5, 6]"] ;
683 -> 684 ;
685 [label="X[22] <= 0.001\ngini = 0.231\nsamples = 70\nvalue = [61, 0, 3, 6]"] ;
684 -> 685 ;
686 [label="gini = 0.0\nsamples = 1\nvalue = [0, 0, 1, 0]"] ;
685 -> 686 ;
687 [label="X[5] <= 0.019\ngini = 0.21\nsamples = 69\nvalue = [61, 0, 2, 6]"] ;
685 -> 687 ;
688 [label="gini = 0.0\nsamples = 1\nvalue = [0, 0, 0, 1]"] ;
687 -> 688 ;
689 [label="X[24] <= 0.0\ngini = 0.189\nsamples = 68\nvalue = [61, 0, 2, 5]"] ;
687 -> 689 ;
690 [label="gini = 0.0\nsamples = 1\nvalue = [0, 0, 0, 1]"] ;
689 -> 690 ;
691 [label="X[9] <= 0.871\ngini = 0.167\nsamples = 67\nvalue = [61, 0, 2, 4]"] ;
689 -> 691 ;
692 [label="X[7] <= 0.003\ngini = 0.143\nsamples = 66\nvalue = [61, 0, 2, 3]"] ;
691 -> 692 ;
693 [label="X[9] <= 0.512\ngini = 0.48\nsamples = 5\nvalue = [3, 0, 0, 2]"] ;
692 -> 693 ;
694 [label="gini = 0.0\nsamples = 2\nvalue = [0, 0, 0, 2]"] ;
693 -> 694 ;
695 [label="gini = 0.0\nsamples = 3\nvalue = [3, 0, 0, 0]"] ;
693 -> 695 ;
696 [label="X[2] <= 0.583\ngini = 0.095\nsamples = 61\nvalue = [58, 0, 2, 1]"] ;
692 -> 696 ;
697 [label="X[2] <= 0.125\ngini = 0.067\nsamples = 58\nvalue = [56, 0, 1, 1]"] ;
696 -> 697 ;
698 [label="X[0] <= 0.318\ngini = 0.227\nsamples = 16\nvalue = [14, 0, 1, 1]"] ;
697 -> 698 ;
699 [label="gini = 0.0\nsamples = 11\nvalue = [11, 0, 0, 0]"] ;
698 -> 699 ;
700 [label="X[3] <= 0.268\ngini = 0.56\nsamples = 5\nvalue = [3, 0, 1, 1]"] ;
698 -> 700 ;
701 [label="X[17] <= 0.001\ngini = 0.5\nsamples = 2\nvalue = [0, 0, 1, 1]"] ;
700 -> 701 ;
702 [label="gini = 0.0\nsamples = 1\nvalue = [0, 0, 1, 0]"] ;
701 -> 702 ;
703 [label="gini = 0.0\nsamples = 1\nvalue = [0, 0, 0, 1]"] ;
701 -> 703 ;
704 [label="gini = 0.0\nsamples = 3\nvalue = [3, 0, 0, 0]"] ;
700 -> 704 ;
705 [label="gini = 0.0\nsamples = 42\nvalue = [42, 0, 0, 0]"] ;
697 -> 705 ;
706 [label="X[13] <= 0.0\ngini = 0.444\nsamples = 3\nvalue = [2, 0, 1, 0]"] ;
696 -> 706 ;
707 [label="gini = 0.0\nsamples = 1\nvalue = [0, 0, 1, 0]"] ;
706 -> 707 ;
708 [label="gini = 0.0\nsamples = 2\nvalue = [2, 0, 0, 0]"] ;
706 -> 708 ;
709 [label="gini = 0.0\nsamples = 1\nvalue = [0, 0, 0, 1]"] ;
691 -> 709 ;
710 [label="X[5] <= 0.148\ngini = 0.444\nsamples = 3\nvalue = [1, 0, 2, 0]"] ;
684 -> 710 ;
711 [label="gini = 0.0\nsamples = 2\nvalue = [0, 0, 2, 0]"] ;
710 -> 711 ;
712 [label="gini = 0.0\nsamples = 1\nvalue = [1, 0, 0, 0]"] ;
710 -> 712 ;
713 [label="X[17] <= 0.005\ngini = 0.5\nsamples = 2\nvalue = [0, 0, 1, 1]"] ;
683 -> 713 ;
714 [label="gini = 0.0\nsamples = 1\nvalue = [0, 0, 0, 1]"] ;
713 -> 714 ;
715 [label="gini = 0.0\nsamples = 1\nvalue = [0, 0, 1, 0]"] ;
713 -> 715 ;
716 [label="X[36] <= 0.014\ngini = 0.48\nsamples = 5\nvalue = [2, 0, 0, 3]"] ;
632 -> 716 ;
717 [label="gini = 0.0\nsamples = 3\nvalue = [0, 0, 0, 3]"] ;
716 -> 717 ;
718 [label="gini = 0.0\nsamples = 2\nvalue = [2, 0, 0, 0]"] ;
716 -> 718 ;
719 [label="X[36] <= 0.034\ngini = 0.497\nsamples = 69\nvalue = [46, 0, 9, 14]"] ;
631 -> 719 ;
720 [label="X[36] <= 0.015\ngini = 0.605\nsamples = 23\nvalue = [7, 0, 4, 12]"] ;
719 -> 720 ;
721 [label="X[9] <= 0.626\ngini = 0.449\nsamples = 7\nvalue = [5, 0, 1, 1]"] ;
720 -> 721 ;
722 [label="X[20] <= 0.003\ngini = 0.5\nsamples = 2\nvalue = [0, 0, 1, 1]"] ;
721 -> 722 ;
723 [label="gini = 0.0\nsamples = 1\nvalue = [0, 0, 1, 0]"] ;
722 -> 723 ;
724 [label="gini = 0.0\nsamples = 1\nvalue = [0, 0, 0, 1]"] ;
722 -> 724 ;
725 [label="gini = 0.0\nsamples = 5\nvalue = [5, 0, 0, 0]"] ;
721 -> 725 ;
726 [label="X[2] <= 0.208\ngini = 0.477\nsamples = 16\nvalue = [2, 0, 3, 11]"] ;
720 -> 726 ;
727 [label="X[4] <= 0.626\ngini = 0.653\nsamples = 7\nvalue = [2, 0, 3, 2]"] ;
726 -> 727 ;
728 [label="X[5] <= 0.085\ngini = 0.48\nsamples = 5\nvalue = [0, 0, 3, 2]"] ;
727 -> 728 ;
729 [label="gini = 0.0\nsamples = 2\nvalue = [0, 0, 0, 2]"] ;
728 -> 729 ;
730 [label="gini = 0.0\nsamples = 3\nvalue = [0, 0, 3, 0]"] ;
728 -> 730 ;
731 [label="gini = 0.0\nsamples = 2\nvalue = [2, 0, 0, 0]"] ;
727 -> 731 ;
732 [label="gini = 0.0\nsamples = 9\nvalue = [0, 0, 0, 9]"] ;
726 -> 732 ;
733 [label="X[3] <= 0.703\ngini = 0.267\nsamples = 46\nvalue = [39, 0, 5, 2]"] ;
719 -> 733 ;
734 [label="X[22] <= 0.0\ngini = 0.208\nsamples = 44\nvalue = [39, 0, 3, 2]"] ;
733 -> 734 ;
735 [label="gini = 0.0\nsamples = 1\nvalue = [0, 0, 1, 0]"] ;
734 -> 735 ;
736 [label="X[33] <= 0.165\ngini = 0.173\nsamples = 43\nvalue = [39, 0, 2, 2]"] ;
734 -> 736 ;
737 [label="X[12] <= 0.3\ngini = 0.056\nsamples = 35\nvalue = [34, 0, 0, 1]"] ;
736 -> 737 ;
738 [label="gini = 0.0\nsamples = 32\nvalue = [32, 0, 0, 0]"] ;
737 -> 738 ;
739 [label="X[7] <= 0.075\ngini = 0.444\nsamples = 3\nvalue = [2, 0, 0, 1]"] ;
737 -> 739 ;
740 [label="gini = 0.0\nsamples = 1\nvalue = [0, 0, 0, 1]"] ;
739 -> 740 ;
741 [label="gini = 0.0\nsamples = 2\nvalue = [2, 0, 0, 0]"] ;
739 -> 741 ;
742 [label="X[33] <= 0.289\ngini = 0.531\nsamples = 8\nvalue = [5, 0, 2, 1]"] ;
736 -> 742 ;
743 [label="X[36] <= 0.074\ngini = 0.444\nsamples = 3\nvalue = [0, 0, 2, 1]"] ;
742 -> 743 ;
744 [label="gini = 0.0\nsamples = 1\nvalue = [0, 0, 0, 1]"] ;
743 -> 744 ;
745 [label="gini = 0.0\nsamples = 2\nvalue = [0, 0, 2, 0]"] ;
743 -> 745 ;
746 [label="gini = 0.0\nsamples = 5\nvalue = [5, 0, 0, 0]"] ;
742 -> 746 ;
747 [label="gini = 0.0\nsamples = 2\nvalue = [0, 0, 2, 0]"] ;
733 -> 747 ;
748 [label="X[3] <= 0.136\ngini = 0.667\nsamples = 15\nvalue = [5, 0, 5, 5]"] ;
590 -> 748 ;
749 [label="X[16] <= 0.002\ngini = 0.408\nsamples = 7\nvalue = [5, 0, 2, 0]"] ;
748 -> 749 ;
750 [label="gini = 0.0\nsamples = 2\nvalue = [0, 0, 2, 0]"] ;
749 -> 750 ;
751 [label="gini = 0.0\nsamples = 5\nvalue = [5, 0, 0, 0]"] ;
749 -> 751 ;
752 [label="X[0] <= 0.273\ngini = 0.469\nsamples = 8\nvalue = [0, 0, 3, 5]"] ;
748 -> 752 ;
753 [label="gini = 0.0\nsamples = 5\nvalue = [0, 0, 0, 5]"] ;
752 -> 753 ;
754 [label="gini = 0.0\nsamples = 3\nvalue = [0, 0, 3, 0]"] ;
752 -> 754 ;
755 [label="X[10] <= 0.283\ngini = 0.193\nsamples = 162\nvalue = [145, 0, 11, 6]"] ;
589 -> 755 ;
756 [label="gini = 0.0\nsamples = 2\nvalue = [0, 0, 0, 2]"] ;
755 -> 756 ;
757 [label="X[29] <= 0.011\ngini = 0.173\nsamples = 160\nvalue = [145, 0, 11, 4]"] ;
755 -> 757 ;
758 [label="X[36] <= 0.01\ngini = 0.5\nsamples = 2\nvalue = [0, 0, 1, 1]"] ;
757 -> 758 ;
759 [label="gini = 0.0\nsamples = 1\nvalue = [0, 0, 0, 1]"] ;
758 -> 759 ;
760 [label="gini = 0.0\nsamples = 1\nvalue = [0, 0, 1, 0]"] ;
758 -> 760 ;
761 [label="X[25] <= 0.212\ngini = 0.153\nsamples = 158\nvalue = [145, 0, 10, 3]"] ;
757 -> 761 ;
762 [label="X[38] <= 0.833\ngini = 0.143\nsamples = 157\nvalue = [145, 0, 9, 3]"] ;
761 -> 762 ;
763 [label="X[6] <= 0.169\ngini = 0.133\nsamples = 156\nvalue = [145, 0, 8, 3]"] ;
762 -> 763 ;
764 [label="X[30] <= 0.0\ngini = 0.048\nsamples = 82\nvalue = [80, 0, 2, 0]"] ;
763 -> 764 ;
765 [label="gini = 0.0\nsamples = 1\nvalue = [0, 0, 1, 0]"] ;
764 -> 765 ;
766 [label="X[0] <= 0.409\ngini = 0.024\nsamples = 81\nvalue = [80, 0, 1, 0]"] ;
764 -> 766 ;
767 [label="gini = 0.0\nsamples = 78\nvalue = [78, 0, 0, 0]"] ;
766 -> 767 ;
768 [label="X[21] <= 0.016\ngini = 0.444\nsamples = 3\nvalue = [2, 0, 1, 0]"] ;
766 -> 768 ;
769 [label="gini = 0.0\nsamples = 1\nvalue = [0, 0, 1, 0]"] ;
768 -> 769 ;
770 [label="gini = 0.0\nsamples = 2\nvalue = [2, 0, 0, 0]"] ;
768 -> 770 ;
771 [label="X[6] <= 0.234\ngini = 0.22\nsamples = 74\nvalue = [65, 0, 6, 3]"] ;
763 -> 771 ;
772 [label="X[0] <= 0.045\ngini = 0.477\nsamples = 16\nvalue = [11, 0, 3, 2]"] ;
771 -> 772 ;
773 [label="X[24] <= 0.001\ngini = 0.656\nsamples = 8\nvalue = [3, 0, 3, 2]"] ;
772 -> 773 ;
774 [label="X[27] <= 0.023\ngini = 0.48\nsamples = 5\nvalue = [0, 0, 3, 2]"] ;
773 -> 774 ;
775 [label="gini = 0.0\nsamples = 2\nvalue = [0, 0, 0, 2]"] ;
774 -> 775 ;
776 [label="gini = 0.0\nsamples = 3\nvalue = [0, 0, 3, 0]"] ;
774 -> 776 ;
777 [label="gini = 0.0\nsamples = 3\nvalue = [3, 0, 0, 0]"] ;
773 -> 777 ;
778 [label="gini = 0.0\nsamples = 8\nvalue = [8, 0, 0, 0]"] ;
772 -> 778 ;
779 [label="X[35] <= 0.055\ngini = 0.13\nsamples = 58\nvalue = [54, 0, 3, 1]"] ;
771 -> 779 ;
780 [label="X[19] <= 0.137\ngini = 0.1\nsamples = 57\nvalue = [54, 0, 3, 0]"] ;
779 -> 780 ;
781 [label="X[17] <= 0.0\ngini = 0.069\nsamples = 56\nvalue = [54, 0, 2, 0]"] ;
780 -> 781 ;
782 [label="X[17] <= 0.0\ngini = 0.245\nsamples = 14\nvalue = [12, 0, 2, 0]"] ;
781 -> 782 ;
783 [label="gini = 0.0\nsamples = 12\nvalue = [12, 0, 0, 0]"] ;
782 -> 783 ;
784 [label="gini = 0.0\nsamples = 2\nvalue = [0, 0, 2, 0]"] ;
782 -> 784 ;
785 [label="gini = 0.0\nsamples = 42\nvalue = [42, 0, 0, 0]"] ;
781 -> 785 ;
786 [label="gini = 0.0\nsamples = 1\nvalue = [0, 0, 1, 0]"] ;
780 -> 786 ;
787 [label="gini = 0.0\nsamples = 1\nvalue = [0, 0, 0, 1]"] ;
779 -> 787 ;
788 [label="gini = 0.0\nsamples = 1\nvalue = [0, 0, 1, 0]"] ;
762 -> 788 ;
789 [label="gini = 0.0\nsamples = 1\nvalue = [0, 0, 1, 0]"] ;
761 -> 789 ;
790 [label="X[7] <= 0.085\ngini = 0.535\nsamples = 78\nvalue = [46, 0, 26, 6]"] ;
588 -> 790 ;
791 [label="X[23] <= 0.004\ngini = 0.483\nsamples = 66\nvalue = [44, 0, 17, 5]"] ;
790 -> 791 ;
792 [label="X[23] <= 0.0\ngini = 0.347\nsamples = 39\nvalue = [31, 0, 4, 4]"] ;
791 -> 792 ;
793 [label="X[22] <= 0.0\ngini = 0.444\nsamples = 3\nvalue = [0, 0, 1, 2]"] ;
792 -> 793 ;
794 [label="gini = 0.0\nsamples = 2\nvalue = [0, 0, 0, 2]"] ;
793 -> 794 ;
795 [label="gini = 0.0\nsamples = 1\nvalue = [0, 0, 1, 0]"] ;
793 -> 795 ;
796 [label="X[6] <= 0.386\ngini = 0.248\nsamples = 36\nvalue = [31, 0, 3, 2]"] ;
792 -> 796 ;
797 [label="X[5] <= 0.808\ngini = 0.164\nsamples = 34\nvalue = [31, 0, 2, 1]"] ;
796 -> 797 ;
798 [label="X[25] <= 0.0\ngini = 0.116\nsamples = 33\nvalue = [31, 0, 1, 1]"] ;
797 -> 798 ;
799 [label="X[34] <= 0.003\ngini = 0.444\nsamples = 3\nvalue = [2, 0, 0, 1]"] ;
798 -> 799 ;
800 [label="gini = 0.0\nsamples = 1\nvalue = [0, 0, 0, 1]"] ;
799 -> 800 ;
801 [label="gini = 0.0\nsamples = 2\nvalue = [2, 0, 0, 0]"] ;
799 -> 801 ;
802 [label="X[25] <= 0.1\ngini = 0.064\nsamples = 30\nvalue = [29, 0, 1, 0]"] ;
798 -> 802 ;
803 [label="gini = 0.0\nsamples = 27\nvalue = [27, 0, 0, 0]"] ;
802 -> 803 ;
804 [label="X[26] <= 0.084\ngini = 0.444\nsamples = 3\nvalue = [2, 0, 1, 0]"] ;
802 -> 804 ;
805 [label="gini = 0.0\nsamples = 1\nvalue = [0, 0, 1, 0]"] ;
804 -> 805 ;
806 [label="gini = 0.0\nsamples = 2\nvalue = [2, 0, 0, 0]"] ;
804 -> 806 ;
807 [label="gini = 0.0\nsamples = 1\nvalue = [0, 0, 1, 0]"] ;
797 -> 807 ;
808 [label="X[36] <= 0.03\ngini = 0.5\nsamples = 2\nvalue = [0, 0, 1, 1]"] ;
796 -> 808 ;
809 [label="gini = 0.0\nsamples = 1\nvalue = [0, 0, 0, 1]"] ;
808 -> 809 ;
810 [label="gini = 0.0\nsamples = 1\nvalue = [0, 0, 1, 0]"] ;
808 -> 810 ;
811 [label="X[4] <= 0.774\ngini = 0.535\nsamples = 27\nvalue = [13, 0, 13, 1]"] ;
791 -> 811 ;
812 [label="X[23] <= 0.004\ngini = 0.485\nsamples = 20\nvalue = [13, 0, 6, 1]"] ;
811 -> 812 ;
813 [label="gini = 0.0\nsamples = 4\nvalue = [0, 0, 4, 0]"] ;
812 -> 813 ;
814 [label="X[21] <= 0.032\ngini = 0.32\nsamples = 16\nvalue = [13, 0, 2, 1]"] ;
812 -> 814 ;
815 [label="X[34] <= 0.001\ngini = 0.142\nsamples = 13\nvalue = [12, 0, 0, 1]"] ;
814 -> 815 ;
816 [label="gini = 0.0\nsamples = 1\nvalue = [0, 0, 0, 1]"] ;
815 -> 816 ;
817 [label="gini = 0.0\nsamples = 12\nvalue = [12, 0, 0, 0]"] ;
815 -> 817 ;
818 [label="X[21] <= 0.081\ngini = 0.444\nsamples = 3\nvalue = [1, 0, 2, 0]"] ;
814 -> 818 ;
819 [label="gini = 0.0\nsamples = 2\nvalue = [0, 0, 2, 0]"] ;
818 -> 819 ;
820 [label="gini = 0.0\nsamples = 1\nvalue = [1, 0, 0, 0]"] ;
818 -> 820 ;
821 [label="gini = 0.0\nsamples = 7\nvalue = [0, 0, 7, 0]"] ;
811 -> 821 ;
822 [label="X[33] <= 0.086\ngini = 0.403\nsamples = 12\nvalue = [2, 0, 9, 1]"] ;
790 -> 822 ;
823 [label="gini = 0.0\nsamples = 8\nvalue = [0, 0, 8, 0]"] ;
822 -> 823 ;
824 [label="X[5] <= 0.217\ngini = 0.625\nsamples = 4\nvalue = [2, 0, 1, 1]"] ;
822 -> 824 ;
825 [label="X[24] <= 0.034\ngini = 0.5\nsamples = 2\nvalue = [0, 0, 1, 1]"] ;
824 -> 825 ;
826 [label="gini = 0.0\nsamples = 1\nvalue = [0, 0, 0, 1]"] ;
825 -> 826 ;
827 [label="gini = 0.0\nsamples = 1\nvalue = [0, 0, 1, 0]"] ;
825 -> 827 ;
828 [label="gini = 0.0\nsamples = 2\nvalue = [2, 0, 0, 0]"] ;
824 -> 828 ;
}